
\data\
ngram 1=3455
ngram 2=28834
ngram 3=13343

\1-grams:
-0.9752277	</s>
-99	<s>	-0.7068867
-2.734762	آ	-0.5923005
-4.442332	آؤ	-0.2506731
-2.677409	آؤٹ	-0.788272
-4.840272	آؤں	-0.2524307
-4.664181	آئ	-0.428522
-3.272071	آئس	-0.6348658
-4.840272	آئسکریم	-0.3004587
-4.539242	آئندہ	-0.2446862
-3.034092	آئی	-0.3806722
-4.840272	آئیزہ	-0.3009484
-3.862549	آئیم	-0.4244191
-4.664181	آئیندہ	-0.294962
-4.840272	آئینگی	-0.2988728
-4.840272	آئیڈیا	-0.3007664
-4.539242	آئیڈیل	-0.6020443
-4.296204	آئیگی	-0.2768132
-4.238213	آئیں	-0.3306838
-4.664181	آئیے	-0.4721557
-3.597234	آئے	-0.5386513
-4.840272	آئےگا	-0.2524307
-3.937182	آب	-0.3107126
-3.115997	آباد	-0.6016671
-3.585	آتا	-0.6078837
-3.819083	آتی	-0.4639542
-4.09991	آتے	-0.6287711
-3.694144	آج	-0.3190801
-4.664181	آجائے	-0.428522
-4.840272	آجاتے	-0.3008009
-4.840272	آجانی	-0.3007068
-4.840272	آجایئے	-0.2524307
-4.840272	آجاینگے	-0.2524307
-4.539242	آخر	-0.388641
-4.442332	آخری	-0.6987127
-4.840272	آدمی	-0.3009892
-4.840272	آدمیوں	-0.2972052
-4.296204	آدھا	-0.3928824
-4.840272	آدھی	-0.2972052
-4.442332	آدھے	-0.3192056
-3.862549	آر	-0.3528697
-4.840272	آرام	-0.2972052
-4.840272	آراونڈ	-0.2989989
-4.664181	آرمی	-0.3010017
-1.749662	آرڈر	-0.7679703
-4.539242	آرڈرز	-0.2961374
-4.664181	آرڈرنگ	-0.4768702
-4.840272	آرڈرکیےہیں	-0.2997168
-4.840272	آرکائیو	-0.2928416
-4.840272	آرکیٹک	-0.3009484
-4.664181	آرہا	-0.428522
-4.840272	آرہہی	-0.2866574
-4.840272	آرہی	-0.2524307
-4.840272	آس	-0.3005843
-4.238213	آسانی	-0.646785
-2.29807	آسلام	-0.9953365
-4.840272	آسکتا	-0.2524307
-4.840272	آسکنگ	-0.298939
-4.664181	آشر	-0.470751
-4.840272	آشنا	-0.2999779
-4.539242	آصف	-0.2945642
-3.636153	آف	-0.4542371
-3.779574	آفر	-0.800827
-4.18706	آفس	-0.3892748
-4.442332	آفٹر	-0.294182
-4.539242	آفیسر	-0.6020098
-4.664181	آفیسرز	-0.300961
-4.664181	آفیشل	-0.2975309
-3.694144	آل	-0.4358768
-4.840272	آلاؤ	-0.3001948
-4.363151	آلرائٹ	-0.4916315
-4.238213	آلریڈی	-0.4330484
-4.442332	آلموسٹ	-0.364462
-4.664181	آلو	-0.4771118
-4.840272	آلویز	-0.3010237
-3.622788	آلٹرنیٹ	-0.7977284
-4.840272	آمبیر	-0.2524307
-4.840272	آمر	-0.2946598
-3.937182	آملیٹ	-0.6711629
-4.539242	آمنہ	-0.3009421
-2.691053	آن	-0.8467404
-4.539242	آنا	-0.2863005
-4.664181	آنسر	-0.2939844
-4.539242	آنلی	-0.3484171
-4.363151	آنی	-0.4107912
-4.539242	آنے	-0.2522658
-3.528518	آواز	-0.5231026
-4.664181	آوت	-0.428522
-4.141303	آور	-0.4881539
-4.539242	آورز	-0.3858536
-4.664181	آوے	-0.2879459
-4.296204	آٹھ	-0.3381768
-1.623842	آپ	-0.8309369
-4.840272	آپا	-0.2993612
-4.840272	آپارٹ	-0.3009704
-4.027359	آپشن	-0.296261
-4.840272	آپشنس	-0.2977712
-4.840272	آپولوجی	-0.3009139
-4.840272	آپکی	-0.2524307
-4.840272	آچکی	-0.2953245
-4.840272	آکر	-0.2988066
-4.296204	آکے	-0.2989895
-4.840272	آگ	-0.3009735
-4.442332	آگئی	-0.2349569
-3.995174	آگیا	-0.4241845
-3.937182	آگین	-0.2958893
-4.664181	آگینسٹ	-0.290473
-3.597234	آگے	-0.4345672
-4.238213	آں	-0.286693
-4.664181	آہستہ	-0.2966193
-4.840272	آیئے	-0.2953245
-3.302453	آیا	-0.4244506
-4.840272	آید	-0.3001445
-4.539242	ا	-0.2359419
-4.840272	ائی	-0.3009547
-4.840272	ائیرپورٹ	-0.3009767
-4.238213	ائے	-0.3099771
-4.840272	ااچھا	-0.2980682
-3.024031	اب	-0.4610483
-4.840272	اباؤٹ	-0.3009515
-4.664181	ابرار	-0.4771118
-4.442332	ابراہیم	-0.2510463
-4.238213	ابو	-0.4307701
-4.840272	ابوبکر	-0.3010143
-4.062121	ابوو	-0.4322338
-4.840272	ابَو	-0.3007633
-4.840272	ابّا	-0.2962262
-4.840272	ابّو	-0.2977017
-2.698822	ابھی	-0.4013569
-4.840272	ابھے	-0.300826
-4.840272	ابی	-0.2966288
-4.840272	ابیحہ	-0.2928416
-4.442332	ابے	-0.292237
-4.840272	ات	-0.3009986
-4.664181	اتا	-0.2976258
-4.238213	اتحاد	-0.3351203
-4.840272	اترنا	-0.3010237
-4.840272	اتلیسٹ	-0.3008668
-3.726329	اتنا	-0.3066269
-4.027359	اتنی	-0.3002294
-4.296204	اتنے	-0.2952356
-4.664181	اتھارہ	-0.4760315
-4.664181	اتھر	-0.2927777
-4.840272	اتے	-0.2953245
-4.539242	اجاز	-0.6010079
-4.539242	اجمل	-0.2441537
-4.539242	احتشام	-0.3968659
-4.840272	احد	-0.3009484
-4.840272	احساس	-0.3009798
-4.664181	احسان	-0.2946502
-4.664181	احسن	-0.2935698
-3.862549	احمد	-0.3474988
-4.840272	اختر	-0.3010237
-3.840272	ادر	-0.5160068
-4.062121	ادریس	-0.4338662
-4.840272	ادھ	-0.3001162
-3.761091	ادھر	-0.2691144
-4.442332	اراؤنڈ	-0.2466175
-4.840272	ارجنٹ	-0.3004713
-4.664181	ارجنٹلی	-0.2883175
-4.840272	ارجینٹ	-0.3010237
-4.840272	ارحم	-0.301008
-4.840272	ارحمان	-0.3008417
-4.840272	اردر	-0.2996319
-4.539242	اردو	-0.3001005
-4.840272	اردے	-0.2996319
-4.840272	ارسلان	-0.2946598
-4.840272	ارسلہ	-0.3009515
-4.840272	ارشاد	-0.3009515
-4.363151	ارشد	-0.4156752
-4.840272	ارلی	-0.3010237
-4.840272	اریب	-0.2999779
-4.840272	اریس	-0.2950861
-4.840272	ارینج	-0.3004713
-4.840272	ارے	-0.2976005
-4.664181	از	-0.3009327
-4.840272	ازل	-0.3010174
-4.840272	اسامہ	-0.2999433
-4.539242	استشنا	-0.2501232
-4.664181	اسد	-0.2866509
-3.393114	اسلام	-1.747855
-4.442332	اسلم	-0.4677453
-4.840272	اسما	-0.3010237
-4.840272	اسموتھی	-0.2953245
-4.840272	اسمودی	-0.2524307
-4.18706	اسمول	-0.2473949
-4.539242	اسٹار	-0.6020035
-4.539242	اسٹارٹ	-0.2852024
-4.840272	اسٹارٹنگ	-0.2972052
-4.840272	اسٹاف	-0.2866574
-4.840272	اسٹاِنس	-0.3009735
-4.840272	اسٹرابری	-0.2524307
-3.128465	اسٹرابیری	-0.7740149
-4.840272	اسٹرٹ	-0.2928416
-4.840272	اسٹرکٹلی	-0.3009767
-4.664181	اسٹریٹ	-0.428522
-4.840272	اسٹل	-0.3007758
-4.442332	اسٹور	-0.356622
-4.840272	اسٹوپڈ	-0.3010237
-4.027359	اسٹینڈرڈ	-0.3310334
-4.442332	اسٹیٹ	-0.4770993
-4.442332	اسٹے	-0.6980845
-4.840272	اسپائس	-0.2524307
-4.442332	اسپائسی	-0.6503707
-4.840272	اسپائیسی	-0.2524307
-4.840272	اسپرائٹ	-0.2524307
-4.442332	اسپرائیٹ	-0.6503707
-4.840272	اسپرنکل	-0.2524307
-4.840272	اسپرنگ	-0.3009955
-4.840272	اسپریڈ	-0.2953245
-4.238213	اسپیشل	-0.3569916
-4.664181	اسپیشلی	-0.2996854
-4.840272	اسپیکنگ	-0.2524307
-4.840272	اسپے	-0.2999905
-4.840272	اسکریمبل	-0.300421
-4.664181	اسکل	-0.428522
-4.539242	اسکو	-0.2970184
-4.840272	اسکوائر	-0.3009578
-4.18706	اسکول	-0.3495025
-4.840272	اسکی	-0.2524307
-3.460061	اسی	-0.5454017
-4.141303	اسے	-0.3076098
-4.840272	اشنا	-0.2999779
-3.726329	اشو	-0.4226199
-4.539242	اصل	-0.5938716
-4.840272	اطمنان	-0.3010018
-4.840272	اعجاز	-0.2999779
-4.840272	اعلی	-0.2980682
-4.840272	اف	-0.3006283
-4.840272	افشا	-0.2999779
-4.296204	افشاں	-0.5946221
-4.840272	افضل	-0.2946598
-3.743362	اقبال	-0.5063964
-4.840272	اقثر	-0.2989453
-4.664181	اقرا	-0.2989674
-4.840272	اقصیٰ	-0.2932314
-4.840272	ال	-0.3010206
-4.840272	الا	-0.2524307
-4.840272	الاؤ	-0.2866574
-4.664181	الامن	-0.2523746
-4.664181	الحمدللہ	-0.2965179
-4.664181	الرائٹ	-0.2977238
-4.840272	العابدین	-0.2979608
-4.539242	الفلاح	-0.2973665
-2.607276	اللہ	-1.285271
-4.664181	الوقت	-0.300779
-4.840272	الٹرنیٹ	-0.2984565
-3.709939	الگ	-0.4498959
-4.840272	الہ	-0.2946598
-4.539242	الی	-0.3943967
-4.664181	الیاس	-0.2863492
-4.664181	الینا	-0.4760692
-3.425299	الیون	-0.4543083
-4.840272	الیپینو	-0.2991911
-4.840272	الے	-0.2996885
-4.539242	ام	-0.2957565
-4.664181	اماؤ	-0.4771118
-2.607276	اماؤنٹ	-0.6986457
-4.664181	امان	-0.4760472
-4.840272	امانت	-0.3009327
-4.539242	امرین	-0.2954326
-4.840272	امل	-0.290579
-4.840272	امپروو	-0.3009484
-4.664181	امپلوائے	-0.4770679
-4.840272	امیمہ	-0.2999779
-4.840272	امین	-0.2999779
-4.664181	ان	-0.428522
-4.664181	انار	-0.4771118
-4.363151	انتظار	-0.3361792
-4.840272	انجام	-0.2977712
-4.840272	انجم	-0.2946598
-4.442332	انجوائے	-0.3611257
-3.308793	اندر	-0.2799613
-4.664181	انزلا	-0.2999685
-4.539242	انزلہ	-0.6010079
-4.840272	انسان	-0.3008104
-4.840272	انسنٹ	-0.3006283
-4.664181	انسٹرکشن	-0.2994902
-4.238213	انسٹرکشنز	-0.3139154
-4.442332	انسٹیٹیوٹ	-0.4251622
-4.238213	انشا	-0.9020159
-3.561519	انشااللہ	-0.4853534
-4.539242	انصاری	-0.3825254
-3.88603	انعم	-0.5321829
-3.743362	انفارمیشن	-0.3533531
-3.678904	انفورم	-0.6377881
-4.840272	انفورمیشنز	-0.2965654
-4.840272	انفیکٹ	-0.3009296
-4.664181	اننیق	-0.3008511
-4.664181	انور	-0.2946534
-4.840272	انوشہ	-0.299043
-4.840272	انوولو	-0.3008009
-4.840272	انویسٹیگیٹ	-0.3009986
-4.840272	انٹر	-0.2965654
-4.363151	انٹرنیشنل	-0.2830172
-4.840272	انٹرپٹ	-0.2977712
-4.840272	انٹیرئر	-0.3010237
-4.840272	انچارج	-0.2866574
-4.363151	انڈرسٹینڈ	-0.2422545
-4.840272	انکا	-0.3010237
-4.840272	انکلیوڈڈ	-0.2866574
-4.664181	انکمپلیٹ	-0.285108
-4.664181	انکو	-0.2926338
-4.840272	انگریڈینٹ	-0.2524307
-4.664181	انگریڈینٹس	-0.2963245
-4.664181	انھیں	-0.2997137
-4.840272	انھے	-0.3003299
-4.840272	انہونے	-0.2524307
-3.232817	انہوں	-1.905157
-4.664181	انہی	-0.2907782
-4.296204	انہیں	-0.2997421
-4.664181	انیس	-0.3008354
-4.539242	انین	-0.2490002
-4.664181	انینز	-0.3008072
-2.923819	او	-1.088702
-3.393114	اوبلیک	-0.6800931
-4.840272	اوبویسلی	-0.3010174
-2.161754	اور	-0.3313482
-3.469204	اورنج	-0.8801957
-4.840272	اورنگ	-0.2980272
-4.840272	اورڈر	-0.2996319
-4.840272	اورہیش	-0.2975468
-4.296204	اورینج	-0.8448784
-3.377874	اوریو	-0.3587138
-4.539242	اوفس	-0.2883627
-4.840272	اوفکورس	-0.290579
-4.840272	اوفیسر	-0.3006691
-4.840272	اوفیشل	-0.2984565
-4.840272	اول	-0.2988728
-4.664181	اولڈ	-0.3010143
-4.539242	اون	-0.5534607
-4.664181	اونر	-0.2968157
-4.840272	اونرز	-0.2983303
-4.442332	اونز	-0.4686355
-4.296204	اونس	-0.3484487
-2.708333	اونلی	-0.7349293
-4.840272	اونلیٹوٹل	-0.3010237
-4.840272	اوور	-0.3010237
-3.88603	اوپر	-0.3363928
-3.910853	اوپن	-0.4393764
-2.263931	اوکے	-0.5766526
-3.573101	اویل	-0.6758794
-3.040932	اویلیبل	-0.904197
-4.442332	اوینیو	-0.3001634
-4.840272	اویٹنگ	-0.2866574
-3.862549	اوے	-0.2987715
-4.840272	اُس	-0.2946598
-4.840272	اُسی	-0.3009892
-4.840272	اُٹھاہیں	-0.2988728
-1.996417	اِس	-0.7184635
-4.840272	اِستشنا	-0.2999779
-4.840272	اِستعمال	-0.3006032
-4.840272	اِسلام	-0.2966288
-4.840272	اِسموتھی	-0.2953245
-4.840272	اِسموتھیاں	-0.3010237
-3.862549	اِسمول	-0.3289868
-4.539242	اِسمیل	-0.6012594
-4.840272	اِسنیک	-0.3003488
-4.840272	اِسٹارٹ	-0.2965654
-4.18706	اِسٹرابیری	-0.423916
-4.664181	اِسٹرکلی	-0.3009515
-4.840272	اِسٹریٹ	-0.2965654
-4.840272	اِسٹل	-0.3006346
-4.840272	اِسٹیمیٹ	-0.3010206
-4.664181	اِسٹینڈرڈ	-0.2973823
-2.511893	اِسپائیسی	-0.9058911
-3.073117	اِسپرائیٹ	-0.3982175
-4.840272	اِسکریمبل	-0.300421
-4.238213	اِسی	-0.3635598
-4.363151	اِسے	-0.2432374
-2.755696	اِن	-0.6276711
-4.840272	اِنتہائی	-0.3010237
-4.840272	اِندازہ	-0.2965654
-4.840272	اِندر	-0.3009484
-4.840272	اِنسٹرکیشن	-0.3008637
-4.539242	اِنشااللہ	-0.599013
-4.840272	اِنفارم	-0.2977712
-4.840272	اِنفورمیشن	-0.3007664
-4.840272	اِنکی	-0.2988728
-3.862549	اِنہوں	-1.275425
-3.862549	اِٹ	-0.4156113
-4.664181	اٹ	-0.428522
-4.442332	اٹس	-0.3648919
-4.840272	اٹکی	-0.3008355
-4.840272	اٹھ	-0.2946598
-3.937182	اٹھا	-0.4772898
-4.664181	اٹھائیے	-0.4721557
-4.840272	اٹھائے	-0.2960644
-4.539242	اٹھاتے	-0.2353548
-4.840272	اٹھارٹی	-0.2972052
-3.79888	اٹھارہ	-0.3993974
-4.840272	اٹھانا	-0.3009955
-4.840272	اٹھوایں	-0.2524307
-4.539242	اٹینڈ	-0.2911088
-3.132702	اپ	-0.3960617
-4.09991	اپارٹمنٹ	-0.3125831
-4.238213	اپر	-0.3304139
-4.664181	اپروول	-0.3003079
-4.840272	اپریل	-0.2983303
-4.840272	اپسے	-0.3010112
-4.840272	اپلیکیشن	-0.2999402
-3.201783	اپنا	-0.6171267
-3.88603	اپنی	-0.2926963
-3.48809	اپنے	-0.2503657
-4.664181	اپوزٹ	-0.428522
-4.09991	اپوزیٹ	-0.2260572
-4.296204	اپولوجائز	-0.4728563
-4.840272	اپوینٹنگ	-0.301008
-3.609823	اپڈیٹ	-0.4218017
-3.550238	اپڈیٹس	-1.130218
-4.840272	اپکا	-0.3007225
-4.840272	اچار	-0.3010174
-2.694144	اچھا	-0.4367456
-4.664181	اچھی	-0.4761132
-4.664181	اچھے	-0.3007382
-4.840272	اڈوائس	-0.2990777
-4.840272	اڑاونڈ	-0.2524307
-4.840272	اڑتالیس	-0.3010206
-4.840272	اک	-0.3009045
-4.539242	اکاؤنٹ	-0.2859012
-4.664181	اکثر	-0.298346
-4.840272	اکرام	-0.2946598
-4.840272	اکسیڈنٹ	-0.2973507
-4.840272	اکوڑدنگ	-0.3010237
-4.840272	اکٹیو	-0.2866574
-4.840272	اکے	-0.3007413
-3.007764	اگر	-0.353878
-4.539242	اگلی	-0.3001382
-4.664181	اگو	-0.3004995
-3.937182	اگین	-0.3317866
-3.678904	اگینسٹ	-0.3098867
-4.840272	اہ	-0.3008386
-4.840272	اہے	-0.3006817
-3.425299	ای	-0.4617474
-4.363151	ایئر	-0.4259405
-4.363151	ایان	-0.2902423
-4.840272	ایبسولیوٹلی	-0.3010206
-4.18706	ایبل	-0.5393211
-4.062121	ایبٹ	-1.078849
-4.442332	ایجاز	-0.4760534
-4.840272	ایجوۓ	-0.2962262
-4.840272	ایدھر	-0.3002231
-4.664181	ایرر	-0.4763207
-3.27798	ایریا	-0.4200887
-4.363151	ایریاز	-0.4117452
-4.840272	ایریاس	-0.2524307
-3.88603	ایز	-0.6421395
-4.840272	ایزا	-0.2994367
-4.840272	ایزلی	-0.290579
-4.664181	ایزی	-0.3001256
-3.528518	ایس	-0.4619963
-3.296204	ایسا	-0.5100493
-4.840272	ایسٹیمیٹ	-0.3001099
-4.363151	ایسی	-0.3367094
-4.09991	ایسے	-0.3057162
-3.585	ایف	-0.4135575
-4.141303	ایل	-0.2705506
-4.539242	ایلس	-0.5534607
-3.819083	ایم	-0.3582514
-4.664181	ایمبیسی	-0.4771118
-4.840272	ایمرجنسی	-0.2946598
-3.743362	این	-0.3845729
-2.37045	اینڈ	-0.5783127
-3.328389	اینی	-0.9571574
-4.840272	اینیشیئل	-0.2932314
-4.840272	ایوب	-0.3010112
-4.840272	ایورج	-0.2524307
-4.664181	ایوری	-0.3010017
-4.840272	ایون	-0.300826
-4.840272	ایونیو	-0.2928416
-2.731369	ایٹ	-0.6929997
-4.840272	ایٹلیسٹ	-0.3010049
-4.840272	ایٹڈبل	-0.2987751
-3.910853	ایٹھ	-0.5671412
-3.328389	ایٹی	-0.6147477
-3.910853	ایٹین	-0.3435166
-3.937182	ایپ	-0.4633781
-4.840272	ایپریشیئٹ	-0.2524307
-3.622788	ایپل	-0.6908816
-4.840272	ایپلی	-0.2524307
-4.09991	ایپلیکیشن	-0.5361065
-4.664181	ایپپل	-0.4770899
-3.425299	ایچ	-0.7914116
-2.908306	ایڈ	-0.6256358
-4.664181	ایڈاون	-0.2894723
-2.468281	ایڈریس	-0.609746
-4.664181	ایڈریسس	-0.2991407
-4.840272	ایڈس	-0.2997389
-4.09991	ایڈن	-0.4706523
-4.840272	ایڈوائس	-0.2866574
-4.238213	ایڈیشن	-0.2207199
-4.296204	ایڈیشنل	-0.5987981
-2.097547	ایک	-0.481714
-4.664181	ایکس	-0.300779
-3.335122	ایکسٹرا	-0.3872267
-3.965211	ایکسٹریملی	-1.175489
-4.296204	ایکسٹینشن	-0.2761295
-4.442332	ایکسپریس	-0.2958613
-4.840272	ایکسپیرنس	-0.2946598
-4.442332	ایکسپیرینس	-0.4705027
-4.539242	ایکسپیکٹ	-0.2935219
-3.433732	ایکسپیکٹڈ	-1.033121
-3.79888	ایکسکلوسیو	-0.8982799
-4.840272	ایکسکیوس	-0.3007413
-4.539242	ایکسیس	-0.3443445
-4.664181	ایکسیپٹ	-0.2905597
-4.539242	ایکشن	-0.3931648
-4.840272	ایکوریم	-0.2980272
-4.840272	ایکٹو	-0.2866574
-4.442332	ایکٹیوے	-0.4568499
-4.18706	ایکچولی	-0.290958
-2.853501	ایگ	-0.7364201
-4.664181	ایگزٹ	-0.4771118
-4.664181	ایگزیکٹ	-0.4666703
-4.539242	ایگزیکٹو	-0.2428466
-4.840272	ایہے	-0.2966288
-3.040932	اے	-0.4934612
-4.296204	بآئے	-0.590805
-4.840272	با	-0.3010237
-4.840272	بائنگ	-0.2985449
-4.664181	بائٹس	-0.2961659
-4.664181	بائیس	-0.300377
-4.840272	بائیک	-0.2999402
-2.853501	بائے	-1.102592
-4.442332	بابا	-0.4260346
-2.634797	بات	-0.6487765
-3.965211	باتیں	-0.303956
-4.840272	باتے	-0.3009923
-4.840272	باد	-0.3009327
-3.037499	بار	-0.7135231
-3.79888	باربی	-1.342087
-4.840272	بارھویں	-0.2988224
-3.79888	بارہ	-0.4560449
-4.840272	بارہوی	-0.2988224
-4.296204	بارے	-0.8369097
-4.539242	باسی	-0.2955851
-4.840272	باقاعدہ	-0.3009264
-3.965211	باقی	-0.2937213
-4.840272	باقیوں	-0.2962262
-4.840272	بال	-0.2524307
-2.500821	بالکل	-0.4490903
-4.840272	باوجود	-0.2988066
-4.840272	باِسی	-0.3009578
-4.664181	باپ	-0.2935634
-3.27798	باکس	-0.3464558
-4.840272	باکسز	-0.2932314
-4.296204	باہر	-0.2371574
-4.840272	ببٹ	-0.290579
-4.664181	بتآئے	-0.2943349
-2.792997	بتا	-0.9441991
-3.937182	بتاؤ	-0.3371757
-4.238213	بتاؤں	-0.3168034
-4.09991	بتائی	-0.3495471
-4.664181	بتائیگا	-0.2468734
-3.321758	بتائیں	-0.4758197
-3.034092	بتائیے	-0.7632394
-4.18706	بتائے	-0.2644743
-4.442332	بتاتا	-0.4738972
-4.141303	بتاتی	-0.9968013
-4.840272	بتاتے	-0.3008009
-4.442332	بتادیجئے	-0.6503707
-4.363151	بتادیں	-0.729552
-3.539242	بتانا	-0.7458346
-4.840272	بتانی	-0.2866574
-4.664181	بتانے	-0.2870268
-4.840272	بتاِنا	-0.3006471
-4.840272	بتاِنے	-0.2946598
-4.664181	بتایئے	-0.4721557
-3.622788	بتایا	-0.4425379
-4.840272	بتایاں	-0.3004399
-4.840272	بتایں	-0.2524307
-3.937182	بتایے	-0.4729551
-4.09991	بج	-0.463717
-4.840272	بجا	-0.3008794
-4.840272	بجائیں	-0.2989926
-4.09991	بجائے	-0.3221729
-4.840272	بجانے	-0.3009202
-4.442332	بجنے	-0.6987975
-4.840272	بجوا	-0.2524307
-4.539242	بجھ	-0.5961161
-3.636153	بجے	-0.3982735
-3.743362	بحریہ	-0.8363339
-4.664181	بخاری	-0.294542
-4.442332	بدتمیزی	-0.2714168
-4.840272	بدلے	-0.2965654
-4.664181	برا	-0.3001445
-2.871789	براؤن	-0.5430612
-4.363151	براؤنز	-0.2824283
-3.636153	براؤنی	-0.7241527
-4.664181	براؤنیز	-0.2363244
-4.840272	برائے	-0.301008
-4.840272	برابر	-0.2928416
-4.840272	برات	-0.3009515
-4.840272	برادر	-0.2524307
-2.513937	برانچ	-0.749372
-4.18706	برانچز	-0.3481358
-4.539242	برانڈ	-0.2888469
-4.840272	براوو	-0.3010237
-4.296204	برن	-0.8450761
-4.664181	بروسٹ	-0.2886274
-2.374147	برگر	-0.5422661
-3.550238	برگرز	-0.3536741
-4.840272	برہر	-0.2950861
-4.664181	بری	-0.2996916
-4.539242	برینڈ	-0.602038
-4.296204	بریڈ	-0.3673249
-3.290044	بریک	-1.122829
-4.840272	بزی	-0.2953245
-2.948178	بس	-0.5150086
-4.840272	بسی	-0.2953245
-4.664181	بشریٰ	-0.3010143
-4.664181	بشیر	-0.2863492
-3.266241	بعد	-0.3155344
-4.141303	بغیر	-0.2980881
-3.79888	بل	-0.3162237
-4.664181	بلاول	-0.4771025
-3.001423	بلاک	-0.3502425
-4.840272	بلند	-0.3009327
-4.296204	بلڈنگ	-0.2680423
-4.664181	بلکہ	-0.2976574
-3.995174	بلکے	-0.2398766
-4.18706	بلیک	-0.3119757
-4.027359	بن	-0.3057435
-4.296204	بنا	-0.3284001
-4.840272	بنائی	-0.3008355
-4.840272	بناِنے	-0.2928416
-4.539242	بنایا	-0.3967432
-4.840272	بنتا	-0.3002137
-4.664181	بنتی	-0.4714158
-4.09991	بند	-0.3206206
-4.840272	بندا	-0.2866574
-4.442332	بندوں	-0.3561291
-4.840272	بندھ	-0.3010237
-3.862549	بندہ	-0.242543
-4.664181	بندی	-0.2940641
-3.995174	بندے	-0.490328
-4.363151	بنگلو	-0.4086747
-4.840272	بوآئز	-0.2524307
-4.09991	بوائز	-0.3607931
-3.145667	بوائے	-0.5409166
-4.363151	بوتل	-0.2346939
-4.840272	بوتھ	-0.3009704
-4.840272	بورا	-0.3009735
-4.840272	بوس	-0.299043
-3.636153	بول	-0.5729709
-3.622788	بولا	-0.3604851
-4.840272	بولتا	-0.2978313
-4.539242	بولتے	-0.3914074
-4.296204	بولنا	-0.3404984
-4.664181	بولنے	-0.2927009
-4.840272	بولو	-0.2988066
-4.442332	بولوں	-0.2443218
-4.840272	بولی	-0.2866574
-4.840272	بولینگے	-0.2928416
-4.09991	بولیں	-0.3192778
-4.238213	بولیے	-0.468196
-4.840272	بولیۓ	-0.2524307
-4.363151	بولے	-0.2422796
-4.664181	بوٹل	-0.428522
-4.840272	بوٹم	-0.2999402
-4.840272	بوکس	-0.2524307
-4.664181	بِٹ	-0.2524237
-4.840272	بِٹر	-0.3010237
-3.09991	بِگ	-1.353562
-3.726329	بٹ	-0.3394823
-4.840272	بٹر	-0.3010237
-4.840272	بٹن	-0.2999402
-4.664181	بچ	-0.2987467
-4.664181	بچا	-0.4749641
-4.141303	بچوں	-0.4974945
-4.664181	بچہ	-0.2509301
-4.363151	بچی	-0.2926242
-3.937182	بچے	-0.3732155
-4.840272	بڈی	-0.2966288
-4.238213	بڑا	-0.3306076
-4.840272	بڑوں	-0.2974203
-4.840272	بڑھا	-0.3010237
-4.840272	بڑھانا	-0.3010143
-4.363151	بڑی	-0.3372421
-4.664181	بڑے	-0.3001885
-4.442332	بک	-0.3622777
-4.664181	بکواس	-0.2946343
-4.840272	بکٹس	-0.3008449
-4.840272	بکیٹ	-0.2866574
-4.664181	بگر	-0.3007099
-4.840272	بگڑ	-0.3008355
-3.819083	بھئی	-0.2777883
-3.238212	بھائی	-0.4268937
-4.840272	بھالے	-0.2524307
-4.840272	بھاٹا	-0.3010143
-4.840272	بھایا	-0.2977712
-4.18706	بھجوا	-0.4098459
-4.442332	بھجوائیں	-0.3608005
-4.840272	بھجوائیے	-0.3009578
-4.840272	بھجوائے	-0.2980682
-4.840272	بھجوایا	-0.2965654
-4.664181	بھجے	-0.3007946
-4.664181	بھرا	-0.2967397
-4.840272	بھلا	-0.2524307
-4.840272	بھول	-0.3007947
-4.664181	بھڑوے	-0.473793
-2.602226	بھی	-0.2877381
-4.539242	بھیا	-0.3794987
-3.460061	بھیج	-0.4869511
-4.840272	بھیجئے	-0.2960644
-4.09991	بھیجا	-0.3089929
-4.539242	بھیجتے	-0.3877107
-4.442332	بھیجنا	-0.4611993
-4.840272	بھیجو	-0.2928416
-4.840272	بھیجوا	-0.3001319
-4.296204	بھیجی	-0.3721716
-4.840272	بھیجینگے	-0.290579
-4.539242	بھیجیں	-0.242635
-4.840272	بھیجیے	-0.2960644
-4.539242	بھیجے	-0.2935857
-4.840272	بھیک	-0.2928416
-4.539242	بہار	-0.25235
-3.182261	بہت	-0.5835211
-3.937182	بہتر	-0.576754
-3.910853	بہن	-0.4944165
-2.726329	بی	-0.3509133
-4.296204	بیانی	-0.3318046
-4.664181	بیزی	-0.3009923
-3.726329	بیس	-0.3888748
-4.840272	بیسس	-0.2999402
-4.840272	بیسمنٹ	-0.2977238
-4.840272	بیسکلی	-0.2524307
-3.79888	بیسیکلی	-0.3093875
-4.539242	بیشک	-0.2997609
-3.092084	بیف	-0.5992119
-3.937182	بیل	-0.3626553
-4.664181	بیلنس	-0.2965496
-4.840272	بیلو	-0.3010237
-4.840272	بین	-0.3010237
-4.840272	بینڈ	-0.3010237
-4.027359	بینک	-0.3106462
-4.442332	بینگ	-0.4762295
-4.840272	بیوقوف	-0.3010237
-4.840272	بیٹ	-0.3007947
-3.910853	بیٹا	-0.2395405
-4.664181	بیٹمین	-0.4771118
-4.664181	بیٹھ	-0.2886274
-4.062121	بیٹھا	-0.4479662
-4.664181	بیٹھائے	-0.2931579
-4.840272	بیٹھایا	-0.3004399
-4.840272	بیٹھنا	-0.2524307
-4.840272	بیٹھو	-0.3010174
-4.363151	بیٹھی	-0.4225645
-4.18706	بیٹھے	-0.3583412
-4.664181	بیٹی	-0.2959375
-4.442332	بیٹے	-0.2380938
-4.296204	بیچ	-0.8369097
-4.840272	بیچارہ	-0.2524307
-4.840272	بیچاری	-0.3010237
-4.840272	بیچارے	-0.2932314
-4.296204	بیڈ	-0.4748443
-3.051397	بیک	-0.5332146
-4.442332	بیکری	-0.2452465
-4.840272	بیکز	-0.3006283
-4.296204	بیکن	-0.8441843
-4.296204	بیکوز	-0.2396791
-4.363151	بیکیو	-0.5404078
-3.201783	بیگ	-0.60162
-4.840272	بیگر	-0.2965654
-4.840272	بیہاینڈ	-0.2962262
-4.840272	بیہیو	-0.3009986
-3.561519	بے	-0.6590461
-4.840272	بےبی	-0.2524307
-4.363151	بےحد	-0.5434622
-4.442332	تا	-0.4702032
-4.840272	تابندہ	-0.2999779
-4.840272	تاجدین	-0.3009108
-4.840272	تاریخ	-0.2974203
-4.840272	تاشی	-0.2524307
-4.840272	تاشین	-0.2946598
-4.840272	تافتان	-0.2928416
-4.09991	تاکہ	-0.3116995
-4.539242	تب	-0.3930189
-4.840272	تبریز	-0.2524307
-4.840272	تبھی	-0.2999402
-4.840272	ترقیاتی	-0.3009892
-4.840272	تسمیہ	-0.2974203
-4.840272	تصویر	-0.3008606
-4.296204	تصویریں	-0.4704517
-4.840272	تفصیل	-0.2972052
-4.664181	تفصیلات	-0.3002859
-4.840272	تقریبا	-0.2524307
-4.18706	تقریباً	-0.2858784
-4.840272	تقریبًا	-0.2975468
-3.694144	تم	-0.3526688
-4.664181	تماشا	-0.2866282
-4.840272	تماشے	-0.2950861
-4.664181	تمام	-0.477093
-4.840272	تماچہ	-0.2866574
-4.539242	تمھیں	-0.2995784
-4.442332	تمہارا	-0.2460839
-4.442332	تمہارے	-0.3679517
-4.664181	تمہیں	-0.2926977
-4.664181	تمہے	-0.3008951
-4.442332	تمیز	-0.3380647
-4.664181	تمیم	-0.2519603
-4.840272	تنزیلا	-0.2999779
-4.442332	تنزیلہ	-0.6979179
-4.442332	تنگ	-0.2903572
-2.304978	تو	-0.3394967
-4.840272	توکہا	-0.2995312
-4.840272	تویلو	-0.2998552
-3.272071	تک	-0.2883019
-4.840272	تکلیف	-0.2974203
-4.840272	تھ	-0.3009453
-2.462784	تھا	-0.4598076
-2.992083	تھاؤزنڈ	-0.6321281
-4.840272	تھاؤزینڈ	-0.2524307
-4.840272	تھائی	-0.3003016
-4.664181	تھائے	-0.2966858
-4.840272	تھاوُزنڈ	-0.2524307
-3.597234	تھرو	-0.3558857
-2.731369	تھرٹی	-0.915758
-3.761091	تھرٹین	-0.4065097
-4.062121	تھرڈ	-0.8121442
-2.33107	تھری	-0.6411467
-4.840272	تھریون	-0.2977238
-3.937182	تھنک	-0.3818459
-4.296204	تھنگ	-0.2902798
-4.840272	تھنگس	-0.2524307
-4.442332	تھورو	-0.2892145
-3.937182	تھوڑا	-0.3220139
-3.709939	تھوڑی	-0.4866612
-4.539242	تھوڑے	-0.3002388
-4.840272	تھپڑ	-0.3010237
-4.664181	تھک	-0.3005121
-4.840272	تھکی	-0.2973507
-2.979934	تھی	-0.3677851
-4.840272	تھیلی	-0.2946598
-2.340585	تھینک	-2.049783
-3.937182	تھینکس	-0.8771203
-4.442332	تھیں	-0.2826312
-3.27798	تھے	-0.4009702
-4.840272	تہ	-0.2928416
-4.840272	تہمور	-0.2946598
-4.840272	تہہ	-0.2928416
-4.840272	تیار	-0.2950861
-4.840272	تیرا	-0.3004242
-4.840272	تیرہ	-0.3004462
-4.664181	تیرے	-0.2524237
-4.442332	تیس	-0.3186191
-4.539242	تیسرا	-0.2984817
-4.442332	تیمور	-0.4696833
-2.989014	تین	-0.3669041
-4.442332	تینو	-0.2497386
-3.79888	تینوں	-0.3760192
-4.840272	تے	-0.290579
-4.664181	ثاقب	-0.2985353
-4.840272	ثمرا	-0.3010237
-4.442332	ثنا	-0.2866638
-4.840272	ثناء	-0.3009641
-4.840272	جآر	-0.2866574
-4.363151	جئیے	-0.729552
-4.664181	جئے	-0.428522
-2.726329	جا	-1.272163
-4.363151	جاؤ	-0.3755872
-4.296204	جاؤں	-0.3325166
-4.840272	جائینگی	-0.300644
-3.622788	جائیں	-0.5758282
-4.027359	جائیے	-0.3198754
-2.59476	جائے	-1.293693
-3.79888	جاتا	-0.8366444
-3.937182	جاتی	-0.7569158
-4.141303	جاتے	-0.9942945
-4.840272	جاری	-0.2953245
-4.840272	جاز	-0.2974203
-4.840272	جاسکی	-0.2988728
-4.840272	جامع	-0.3010237
-3.819083	جان	-0.4097058
-4.238213	جانا	-0.3309757
-3.743362	جانب	-1.101857
-4.296204	جاننا	-0.6012908
-4.840272	جانیب	-0.2972052
-4.840272	جانے	-0.3009453
-4.296204	جاوید	-0.3420995
-4.664181	جاکر	-0.3006974
-4.840272	جاہ	-0.3010237
-4.840272	جاینگے	-0.2524307
-4.840272	جاے	-0.2960644
-3.328389	جب	-0.3755891
-4.664181	جبران	-0.428522
-4.664181	جتنا	-0.2894658
-4.539242	جتنے	-0.3965954
-4.442332	جدون	-0.6989543
-4.840272	جرنل	-0.3008794
-3.254812	جس	-0.7433296
-3.518053	جسٹ	-0.3345851
-4.840272	جسی	-0.3007852
-4.539242	جسے	-0.2996413
-4.840272	جلال	-0.2946598
-4.442332	جلد	-0.2971609
-3.910853	جلدی	-0.3039348
-4.296204	جمال	-0.6019941
-4.840272	جمبو	-0.2979829
-4.840272	جمپنگ	-0.3007099
-4.664181	جن	-0.2905051
-4.539242	جناب	-0.3493337
-4.539242	جناح	-0.3006597
-4.539242	جنہوں	-0.5987317
-4.664181	جنیجو	-0.2944687
-4.840272	جنید	-0.2946598
-2.421971	جو	-0.3271156
-4.442332	جواب	-0.3630176
-4.664181	جواد	-0.2904505
-3.296204	جوس	-0.3251127
-4.363151	جوسز	-0.2379524
-4.840272	جوسی	-0.3005969
-4.840272	جون	-0.2983303
-4.539242	جونئیر	-0.2507928
-4.664181	جونسی	-0.4771056
-3.609823	جوہر	-0.6042102
-4.840272	جکدیش	-0.2999779
-4.840272	جگ	-0.2524307
-3.678904	جگہ	-0.3261059
-4.296204	جھوٹ	-0.3411064
-4.664181	جھگڑا	-0.4765154
-3.88603	جہاں	-0.480432
-1.838539	جی	-0.6436228
-3.622788	جیئے	-0.5736902
-4.664181	جیزمین	-0.2942457
-4.840272	جیسا	-0.3009986
-4.238213	جیسے	-0.3760192
-4.539242	جیل	-0.6018717
-4.840272	جینہ	-0.300666
-4.840272	جینیولی	-0.2928416
-4.09991	جیۓ	-0.5808424
-4.027359	جے	-0.2766088
-4.840272	حا	-0.2524307
-4.664181	حائقہ	-0.4760692
-4.442332	حارث	-0.3605677
-4.664181	حاصل	-0.4711774
-4.840272	حاضر	-0.2978313
-2.6321	حافظ	-1.414394
-4.539242	حال	-0.2907942
-4.664181	حالانکے	-0.2980429
-4.664181	حالت	-0.300757
-4.840272	حالی	-0.2928416
-4.840272	حامد	-0.2946598
-4.09991	حبیب	-0.6354398
-3.862549	حد	-0.730069
-4.539242	حدیقہ	-0.2893659
-4.442332	حرکت	-0.2952514
-4.840272	حرکتے	-0.2950861
-4.840272	حریم	-0.2999779
-4.539242	حساب	-0.2862097
-4.539242	حسام	-0.6010079
-4.539242	حسان	-0.2917566
-3.937182	حسن	-0.2941318
-4.664181	حسیب	-0.294647
-4.442332	حسین	-0.3605038
-4.840272	حضرت	-0.3005843
-4.664181	حفصہ	-0.2945897
-4.442332	حل	-0.2831578
-4.18706	حماد	-0.6978959
-4.062121	حمزہ	-0.299186
-4.840272	حمیداللہ	-0.3009515
-3.965211	حنا	-0.3785232
-3.103876	حوالے	-1.393712
-4.840272	حکم	-0.2866574
-4.840272	حیا	-0.2524307
-4.238213	حیدر	-0.6490521
-4.18706	حیدرآباد	-0.4108145
-4.840272	خاتون	-0.2953245
-4.664181	خالد	-0.2944687
-4.296204	خالی	-0.297765
-4.840272	خاموشی	-0.2866574
-4.840272	خامہ	-0.3009986
-3.743362	خان	-0.4479415
-4.840272	خانزادہ	-0.3000219
-4.840272	خاِن	-0.2524307
-4.840272	خبری	-0.3009829
-4.442332	ختم	-0.3637911
-4.18706	خدا	-0.9532281
-4.840272	خدمت	-0.2928416
-4.539242	خدیجہ	-0.2909644
-3.995174	خراب	-0.3549295
-4.664181	خرم	-0.2999559
-4.840272	خرّم	-0.3000219
-4.539242	خلاف	-0.2947107
-4.840272	خوا	-0.2978313
-4.840272	خواں	-0.2978313
-4.664181	خواہ	-0.4739226
-3.779574	خود	-0.3437373
-4.840272	خوش	-0.3010237
-3.862549	خیابان	-0.3717495
-4.539242	خیابانِ	-0.3009829
-4.18706	خیال	-0.3012356
-4.840272	خیبر	-0.2524307
-4.840272	خیر	-0.2928416
-4.840272	خیرالورا	-0.2946598
-4.539242	خیرالورہ	-0.3809625
-4.539242	خیریت	-0.3796133
-3.636153	دئیے	-0.5372292
-3.726329	دا	-0.396371
-4.664181	دائم	-0.4770711
-4.840272	دارلصحت	-0.2524307
-4.363151	دال	-0.5376851
-4.363151	دانش	-0.7770991
-4.539242	دانیال	-0.3481639
-4.840272	داوے	-0.2524307
-4.840272	دبارہ	-0.3010112
-4.840272	دجیئے	-0.3007193
-4.840272	دخلیں	-0.3009359
-4.664181	دراصل	-0.2982861
-4.664181	درنگ	-0.2490709
-4.664181	درکار	-0.4714158
-2.697258	دس	-0.973323
-4.840272	دسمبر	-0.2972052
-4.840272	دعا	-0.2866574
-4.840272	دفتر	-0.2928416
-4.539242	دفتری	-0.3000062
-3.227489	دفعہ	-0.3426075
-4.664181	دفہ	-0.2988066
-4.840272	دل	-0.2988728
-4.664181	دم	-0.4732964
-4.840272	دماغ	-0.3009861
-3.79888	دن	-0.332767
-4.840272	دنوں	-0.2928416
-4.840272	دنیا	-0.2946598
-2.510875	دو	-0.3956218
-3.539242	دوبارہ	-0.3956914
-4.840272	دودو	-0.2999905
-4.840272	دودھ	-0.3009453
-4.238213	دور	-0.5082467
-4.840272	دوست	-0.2524307
-3.539242	دوسرا	-0.3386287
-4.296204	دوسری	-0.275857
-4.141303	دوسرے	-0.442056
-3.051397	دونوں	-0.4160605
-4.840272	دونگا	-0.2524307
-4.664181	دونگی	-0.2905661
-4.664181	دوپہر	-0.2973507
-3.49785	دوں	-0.4947985
-3.115997	دِس	-1.379005
-4.840272	دٹیلس	-0.3003016
-4.840272	دکان	-0.2972052
-4.840272	دکھ	-0.3009923
-4.664181	دکھا	-0.2862973
-4.840272	دکھائی	-0.3001948
-4.840272	دکھنے	-0.2972052
-4.664181	دکھے	-0.2930142
-4.664181	دھڑلے	-0.4732964
-4.141303	دہ	-0.4454766
-3.408909	دی	-0.5652745
-4.363151	دیئر	-0.3771168
-3.037499	دیا	-0.6166112
-3.095979	دیتا	-1.29305
-3.222224	دیتی	-1.104789
-3.678904	دیتے	-0.672708
-4.363151	دیجئیے	-0.729552
-3.88603	دیجئے	-1.206673
-2.800858	دیجیئے	-0.6306069
-4.840272	دیجیگا	-0.3007884
-4.664181	دیجیے	-0.428522
-3.622788	دیجیۓ	-1.469915
-4.664181	دیجے	-0.252343
-4.840272	دیدئیے	-0.3008009
-4.840272	دیدو	-0.2524307
-4.664181	دیدیں	-0.428522
-3.539242	دیر	-0.6339936
-4.442332	دیزرٹس	-0.6907816
-4.840272	دیش	-0.3006346
-4.840272	دیفرنٹ	-0.2953245
-3.937182	دین	-0.3712625
-3.694144	دینا	-0.4240248
-4.840272	دینگی	-0.300961
-4.539242	دینگے	-0.3468533
-4.442332	دینی	-0.3473504
-4.296204	دینے	-0.2857466
-4.840272	دیوار	-0.2928416
-4.442332	دیٹ	-0.3192758
-4.18706	دیٹس	-0.5641867
-4.840272	دیکر	-0.3005938
-3.995174	دیکھ	-0.4463412
-4.363151	دیکھا	-0.2776615
-4.840272	دیکھتا	-0.2866574
-4.664181	دیکھتی	-0.4714158
-4.539242	دیکھنا	-0.2965052
-4.539242	دیکھو	-0.2934613
-4.442332	دیکھی	-0.2776383
-3.664181	دیکھیں	-0.3265211
-4.664181	دیکھیے	-0.287781
-4.840272	دیکھے	-0.3010112
-4.840272	دیگا	-0.2980272
-2.329058	دیں	-0.5668866
-4.840272	دیںا	-0.2975468
-4.840272	دیے	-0.2524307
-3.177515	دے	-0.5303046
-3.664181	ذرا	-0.3239289
-4.840272	ذراسا	-0.3007884
-4.840272	ذریعہ	-0.3008009
-4.664181	ذریعے	-0.3000156
-4.840272	ذکر	-0.2524307
-3.597234	ذیشان	-0.4535559
-4.664181	رؤف	-0.3008982
-4.664181	رئیلی	-0.3010017
-4.840272	راؤ	-0.3010206
-4.840272	راؤف	-0.3009515
-4.840272	رائس	-0.3010237
-3.910853	رائل	-0.2726113
-4.840272	رائمل	-0.290579
-3.103876	رائٹ	-0.831391
-4.840272	رائٹس	-0.3008166
-4.840272	رائڈر	-0.2524307
-4.840272	رائی	-0.2524307
-4.840272	رائیڈ	-0.3007852
-3.150076	رائیڈر	-0.4276603
-4.840272	رائیڈرز	-0.2988224
-4.664181	رائیڈروں	-0.470751
-4.027359	رابطہ	-0.3360974
-4.539242	رابعہ	-0.3465604
-3.88603	رات	-0.4293173
-4.664181	راجہ	-0.3008354
-4.840272	راحت	-0.3007256
-4.539242	راحیل	-0.3966363
-4.840272	راحیمہ	-0.2999779
-4.664181	راستہ	-0.2781907
-4.664181	راستے	-0.4689329
-4.539242	راشد	-0.2928288
-4.539242	رانگ	-0.3948866
-4.238213	راولپنڈی	-0.3120111
-4.840272	راہمہ	-0.2999779
-4.442332	راہیمہ	-0.6979179
-3.937182	راہیں	-0.5816407
-4.840272	راہیے	-0.2960644
-3.819083	رباب	-0.5669304
-4.840272	ربیکا	-0.2999779
-4.840272	رجسٹر	-0.2965654
-4.664181	رجسٹرڈ	-0.4627486
-4.664181	رجسٹریشن	-0.2958835
-4.840272	رحما	-0.3010049
-4.840272	رحمان	-0.3009641
-4.539242	رحمت	-0.3968596
-4.539242	رحمہ	-0.3915029
-4.442332	رحیم	-0.6985809
-4.442332	رحیمہ	-0.6979179
-4.027359	ردا	-0.5927802
-4.840272	رزلٹ	-0.2524307
-4.840272	رستے	-0.2928416
-4.296204	رسپونس	-0.2932474
-4.840272	رسپونڈنگ	-0.2866574
-4.840272	رسیونگ	-0.2524307
-4.664181	رش	-0.2866249
-4.141303	رضوان	-0.4274221
-4.664181	رضویہ	-0.4770397
-4.840272	رفیق	-0.2946598
-4.840272	رقو	-0.3010237
-4.238213	رمضان	-0.6522453
-4.840272	رننگ	-0.2991911
-4.296204	رنڈی	-0.5920265
-4.539242	رنگ	-0.2900453
-4.840272	روئل	-0.2524307
-4.442332	روئیل	-0.3661159
-4.840272	روباب	-0.2999779
-4.664181	روز	-0.3000816
-4.664181	روزہ	-0.3009955
-4.840272	رولز	-0.2953245
-4.840272	روم	-0.2984565
-4.840272	رومان	-0.3001445
-4.442332	رومی	-0.3149948
-4.840272	روٹیٹ	-0.3010237
-4.664181	روپی	-0.428522
-4.238213	روپیز	-0.472726
-4.664181	روپیہ	-0.3006659
-3.664181	روپے	-0.5137445
-3.363151	روڈ	-0.3775839
-4.539242	روڈلی	-0.3930982
-4.664181	روک	-0.3007915
-4.840272	روکئیے	-0.2960644
-4.840272	روکنا	-0.3009798
-4.840272	روکیں	-0.2988066
-4.840272	رویال	-0.3009014
-4.840272	رپریزنٹ	-0.2950861
-4.840272	رپلائے	-0.3007413
-4.840272	رپٹ	-0.2995973
-2.638875	رپیز	-0.7508322
-4.840272	رکوائرمنٹس	-0.3005341
-4.539242	رکوائرڈ	-0.2358289
-4.840272	رکوائیرڈ	-0.3006032
-4.18706	رکھ	-0.3549347
-4.363151	رکھئیے	-0.7731857
-4.18706	رکھا	-0.3465529
-4.840272	رکھتے	-0.2953245
-4.664181	رکھنا	-0.2519533
-4.840272	رکھنے	-0.2972052
-4.840272	رکھوائی	-0.2524307
-4.840272	رکھی	-0.2973507
-4.840272	رکھیں	-0.2973507
-4.664181	رکھے	-0.2998112
-4.664181	رکیے	-0.4721557
-4.539242	رہ	-0.3915539
-4.840272	رہئیے	-0.2524307
-2.416208	رہا	-1.100854
-4.840272	رہاش	-0.2866574
-3.937182	رہاں	-0.9198025
-4.296204	رہتا	-0.458572
-4.664181	رہتی	-0.2978218
-4.840272	رہتے	-0.2953245
-4.664181	رہنمائی	-0.2937006
-3.550238	رہنے	-1.123541
-4.664181	رہوں	-0.2518269
-2.371925	رہی	-1.287755
-4.238213	رہیئے	-0.599056
-4.840272	رہیگا	-0.2524307
-3.460061	رہیں	-0.6493253
-3.037499	رہیے	-0.9347907
-4.664181	رہیۓ	-0.428522
-2.684936	رہے	-1.082054
-4.442332	ری	-0.3609121
-4.363151	ریاض	-0.2292699
-3.649941	ریب	-0.3456098
-4.664181	ریجسٹر	-0.2958645
-4.442332	ریجنل	-0.6988194
-4.840272	ریحاد	-0.2524307
-4.840272	ریدا	-0.2999779
-4.664181	ریزن	-0.294787
-4.238213	ریزولو	-0.3650468
-4.840272	ریزولوشن	-0.3009422
-4.840272	ریزیڈنسی	-0.3009955
-4.840272	ریسنٹلی	-0.3006817
-4.18706	ریسٹورنٹ	-0.3870527
-4.664181	ریسپیکٹ	-0.2988665
-3.539242	ریسیو	-0.6068075
-4.539242	ریسیپٹ	-0.3008668
-4.664181	ریشو	-0.2987624
-4.840272	ریفرینس	-0.3007413
-4.539242	ریفنڈ	-0.389758
-4.840272	ریفوس	-0.2950861
-4.363151	ریلی	-0.4249827
-4.840272	ریلیشن	-0.2988066
-4.664181	ریلیٹڈ	-0.428522
-4.238213	ریلیٹیڈ	-0.2500597
-4.840272	ریمارک	-0.3009422
-4.18706	ریموو	-0.5579967
-4.664181	ریمیننگ	-0.47644
-4.840272	رینا	-0.3010237
-4.840272	رینڈملی	-0.3008794
-4.664181	ریوینیو	-0.4770397
-4.664181	ریٹ	-0.4768765
-4.363151	ریٹرن	-0.4177068
-4.442332	ریٹس	-0.6907816
-4.664181	ریپ	-0.428522
-4.840272	ریپریزنٹ	-0.2950861
-4.539242	ریپریزنٹیٹو	-0.2934102
-4.664181	ریپلائے	-0.2969107
-3.709939	ریپلیس	-0.4888907
-4.840272	ریپلیسمنٹ	-0.2962262
-4.840272	ریپیتیں	-0.2950861
-4.840272	ریپیزنٹیٹو	-0.2524307
-2.670011	ریپیٹ	-0.8573939
-4.840272	ریپیٹینگ	-0.2524307
-4.09991	ریپیٹیٹ	-0.2942039
-4.296204	ریپیٹیٹیٹ	-0.8307254
-4.840272	ریچڈ	-0.3010143
-4.840272	ریڈی	-0.3006
-4.539242	ریڈیم	-0.3883365
-4.238213	ریکارڈ	-0.4347572
-4.840272	ریکارڈر	-0.2973507
-4.442332	ریکارڈنگ	-0.3641267
-4.840272	ریکارڈنگز	-0.3007664
-4.840272	ریکوائرمنٹ	-0.2973507
-4.664181	ریکوائرڈ	-0.2862162
-4.539242	ریکورڈ	-0.3931648
-4.664181	ریکورڈیڈ	-0.4627486
-4.539242	ریکویسٹ	-0.2781808
-4.840272	ریگ	-0.2996885
-2.611103	ریگولر	-0.68998
-4.840272	ریگولرلی	-0.2988224
-4.840272	رے	-0.2953245
-4.664181	زادہ	-0.2982545
-4.840272	زار	-0.2524307
-4.363151	زارہ	-0.2986757
-4.442332	زاہد	-0.3154553
-4.539242	زبردستی	-0.2407038
-4.840272	زبیر	-0.30087
-4.840272	زد	-0.2950861
-4.442332	زدہ	-0.2968601
-3.88603	زلمی	-0.8198401
-4.840272	زمانی	-0.2946598
-4.539242	زمزمہ	-0.2971735
-4.840272	زندگی	-0.2928416
-4.840272	زنگرز	-0.3006346
-4.840272	زونل	-0.3008794
-4.442332	زوہیب	-0.2329362
-4.840272	زہرا	-0.2999779
-4.840272	زی	-0.2866574
-3.995174	زیادہ	-0.2116014
-4.840272	زیان	-0.3010112
-2.531708	زیرو	-1.115803
-4.840272	زیشان	-0.2524307
-3.761091	زین	-0.3543773
-4.09991	زینب	-0.4931366
-4.840272	زیڈ	-0.2524307
-3.417027	سا	-0.2834338
-4.840272	سائبر	-0.3010018
-4.539242	سائرہ	-0.3493127
-3.539242	سائز	-0.422967
-4.840272	سائمہ	-0.3010237
-4.840272	سائنس	-0.3010143
-4.442332	سائٹ	-0.3615366
-3.995174	سائیڈ	-0.3825852
-4.664181	سابیشری	-0.476933
-4.664181	سات	-0.2950447
-2.64994	ساتھ	-0.3750809
-4.840272	سادھی	-0.3008198
-3.819083	سارا	-0.2861999
-4.840272	ساروں	-0.2524307
-4.062121	سارہ	-0.5718457
-4.18706	ساری	-0.3297996
-3.779574	سارے	-0.2270803
-4.664181	ساسج	-0.428522
-4.363151	ساسس	-0.336049
-4.840272	ساسیج	-0.2524307
-4.238213	سال	-0.359338
-4.442332	سالٹ	-0.2447933
-4.840272	سالہ	-0.3009484
-4.664181	سامنا	-0.2981282
-4.539242	سامنے	-0.2946916
-4.840272	ساندہ	-0.3008417
-4.664181	سانپ	-0.4771118
-4.840272	ساور	-0.2524307
-4.664181	ساِس	-0.2946152
-4.840272	ساِسس	-0.3005969
-4.840272	ساِسیجز	-0.3004022
-4.363151	ساڑھے	-0.3518185
-4.664181	ساہی	-0.298406
-3.518053	سب	-0.4000242
-4.664181	سبزیاں	-0.2993769
-4.840272	ستائیس	-0.3010237
-4.840272	ستارہ	-0.299698
-4.664181	ستر	-0.4770271
-4.442332	سترہ	-0.6985997
-4.442332	سجاد	-0.4582805
-4.840272	سجیسٹ	-0.2950861
-4.664181	سحر	-0.2453
-4.840272	سخت	-0.3005749
-4.840272	سدرہ	-0.3010237
-4.442332	سدہ	-0.6907816
-2.104275	سر	-0.4448765
-4.840272	سرای	-0.3009641
-4.840272	سردار	-0.3010237
-4.09991	سرف	-0.6284674
-4.840272	سرفراز	-0.3001162
-4.840272	سرمد	-0.2524307
-4.664181	سرمست	-0.476933
-4.664181	سرمیں	-0.2962896
-4.840272	سرور	-0.2946598
-3.49785	سروس	-0.2848137
-4.664181	سرونگ	-0.2936049
-3.385427	سروو	-1.068141
-4.840272	سرٹو	-0.3007633
-4.840272	سرپرائز	-0.3010143
-4.840272	سرچ	-0.2950861
-4.840272	سرکولر	-0.2524307
-4.442332	سرگودھا	-0.3153207
-4.442332	سری	-0.2989453
-4.664181	سرے	-0.2929822
-4.840272	سستی	-0.2999433
-4.840272	سسر	-0.2999433
-4.664181	سسٹر	-0.2969329
-4.18706	سسٹم	-0.2897299
-4.840272	سع	-0.2999779
-4.840272	سعادت	-0.3000219
-4.539242	سعد	-0.6010079
-4.840272	سعدی	-0.2999779
-4.840272	سعدیہ	-0.2946598
-4.664181	سعود	-0.470751
-4.840272	سعید	-0.2946598
-4.296204	سلائس	-0.2758051
-4.840272	سلاد	-0.3010143
-4.442332	سلام	-0.3188545
-4.840272	سلامت	-0.3009704
-4.840272	سلسلے	-0.2928416
-4.840272	سلطان	-0.3009798
-4.664181	سلو	-0.2858298
-4.840272	سلوک	-0.3006032
-4.664181	سلپ	-0.2865763
-4.840272	سلیش	-0.2977238
-4.442332	سلیم	-0.3182288
-4.664181	سلیمان	-0.470751
-4.238213	سم	-0.2608716
-4.363151	سمبارا	-0.5439049
-4.840272	سمبل	-0.3008417
-4.840272	سمتھنگ	-0.2524307
-3.649941	سمجھ	-0.4805232
-4.442332	سمجھا	-0.2809788
-4.840272	سمجھانے	-0.2946598
-4.840272	سمجھایا	-0.2995312
-4.442332	سمجھی	-0.3527116
-4.840272	سمجھیں	-0.2524307
-4.840272	سمجھے	-0.300961
-4.840272	سممی	-0.2999779
-4.840272	سمنہ	-0.3006974
-4.840272	سموئیر	-0.3010174
-4.840272	سمول	-0.2524307
-3.995174	سمپل	-0.4912008
-4.442332	سمی	-0.2450967
-4.840272	سمیئہ	-0.2999779
-4.141303	سمیر	-0.5935966
-4.840272	سمینہ	-0.3010206
-4.664181	سمیہ	-0.4760692
-4.062121	سن	-0.4402371
-4.238213	سنا	-0.2859597
-4.539242	سنائیں	-0.2524062
-4.840272	سنتا	-0.2866574
-4.840272	سنتے	-0.3009422
-4.840272	سندھ	-0.2972052
-4.664181	سننا	-0.2407255
-4.442332	سننے	-0.2812152
-4.539242	سنٹر	-0.3450608
-4.539242	سنڈیز	-0.2920321
-2.77769	سنڈے	-0.520182
-4.840272	سنکڈز	-0.3006346
-4.840272	سنگاپور	-0.2972052
-3.664181	سنگل	-0.6425526
-4.664181	سنی	-0.3005247
-4.539242	سنیں	-0.2775919
-3.06942	سو	-0.5450758
-3.726329	سوئیٹ	-0.9680309
-4.296204	سوئے	-0.3152307
-4.664181	سوا	-0.4767604
-3.779574	سور	-0.4511431
-2.858001	سوری	-0.4417774
-2.97695	سوس	-0.4225065
-4.840272	سوسائٹی	-0.2524307
-3.726329	سوسائیٹی	-0.2810116
-4.840272	سوسایٹی	-0.2524307
-3.141302	سوسج	-0.5983148
-3.88603	سوسجز	-0.5783984
-4.442332	سوسز	-0.2746487
-4.238213	سوسس	-0.3606525
-4.664181	سوسیج	-0.428522
-4.539242	سوفٹ	-0.5998934
-4.840272	سول	-0.3008888
-4.664181	سولا	-0.292784
-4.840272	سولٹڈ	-0.3009798
-4.840272	سولیمان	-0.3010206
-4.539242	سومی	-0.6020474
-3.862549	سون	-0.6572049
-4.840272	سونتی	-0.3000313
-4.664181	سونک	-0.4769832
-4.664181	سونگ	-0.476685
-4.664181	سونیا	-0.470751
-4.539242	سونے	-0.3949561
-4.664181	سوچ	-0.2975057
-4.840272	سوچا	-0.2524307
-4.840272	سوگرہ	-0.2988728
-4.442332	سوہا	-0.2398813
-4.840272	سویٹ	-0.2524307
-4.840272	سٹارٹ	-0.2973507
-4.840272	سٹرکٹلی	-0.3010049
-3.076844	سٹریٹ	-0.5855436
-4.840272	سٹریٹجی	-0.3010174
-3.40094	سٹی	-0.5039496
-4.664181	سٹیزن	-0.2926657
-3.819083	سٹیٹس	-0.367104
-4.296204	سٹیپ	-0.4756539
-4.840272	سپ	-0.3005686
-4.664181	سپر	-0.4771118
-4.840272	سپرائٹ	-0.2524307
-4.664181	سپرمین	-0.2518515
-4.539242	سپروائزر	-0.2900131
-3.88603	سپریٹ	-1.206673
-4.664181	سپریٹلی	-0.2407255
-4.840272	سپلائی	-0.3006879
-4.840272	سپیسیفکلی	-0.300826
-4.840272	سپیکنگ	-0.2524307
-4.539242	سچ	-0.2857258
-4.664181	سچل	-0.4771118
-4.840272	سڑا	-0.3010237
-3.341962	سکتا	-0.6715698
-3.28397	سکتی	-0.7374014
-4.296204	سکتیں	-0.8393926
-3.308793	سکتے	-0.768478
-4.539242	سکرین	-0.397893
-2.552471	سکس	-0.7556925
-3.290044	سکسٹی	-0.5676095
-3.937182	سکسٹین	-0.3812653
-4.539242	سکنڈز	-0.5534607
-4.840272	سکونگا	-0.2524307
-4.141303	سکوں	-0.4483521
-4.840272	سکٹر	-0.2524307
-4.840272	سکھائی	-0.3008355
-4.664181	سکی	-0.2888694
-4.840272	سکیں	-0.2993202
-4.296204	سکے	-0.3340746
-4.539242	سگنل	-0.3978459
-4.840272	سگنلز	-0.3010174
-4.840272	سہ	-0.2524307
-3.355973	سہی	-0.5595887
-2.97104	سی	-0.4251586
-4.840272	سیئنگ	-0.2979608
-3.995174	سیالکوٹ	-0.3810561
-4.840272	سیاپا	-0.2950861
-4.296204	سید	-0.3456131
-4.664181	سیدا	-0.2944687
-4.840272	سیدھی	-0.3000219
-4.840272	سیر	-0.2999905
-4.539242	سیرپ	-0.2473032
-4.840272	سیس	-0.3006346
-4.664181	سیف	-0.2917823
-4.027359	سیل	-0.358966
-4.363151	سیلون	-0.5403761
-4.840272	سیلکٹ	-0.2950861
-3.79888	سیم	-0.3833719
-4.840272	سیمپل	-0.2991911
-4.539242	سیمہ	-0.3836549
-4.840272	سین	-0.2866574
-4.296204	سینئیر	-0.473192
-4.296204	سیناریو	-0.383522
-3.88603	سینٹر	-0.5647228
-4.664181	سینٹرل	-0.3006283
-4.840272	سینٹرلائزڈ	-0.2984565
-4.363151	سینڈ	-0.2881043
-4.09991	سینڈوچ	-0.4205666
-4.840272	سینیار	-0.3010237
-4.840272	سینیریو	-0.3009264
-3.937182	سیو	-0.3950574
-4.840272	سیواے	-0.3009986
-2.775814	سیون	-0.6152562
-3.191912	سیونٹی	-0.5982145
-3.840272	سیونٹین	-0.4753591
-4.840272	سیوے	-0.2996885
-4.664181	سیٹ	-0.2514965
-4.664181	سیٹسفائڈ	-0.2882916
-4.664181	سیٹلائٹ	-0.2985669
-4.840272	سیپ	-0.2524307
-2.792997	سیپرپٹ	-0.4470435
-4.840272	سیپرپٹلی	-0.3010237
-3.37045	سیپریٹ	-0.3472091
-3.840272	سیپریٹلی	-0.3106212
-4.664181	سیڈ	-0.470751
-4.840272	سیڑھیوں	-0.2972052
-3.290044	سیکنڈ	-0.3615871
-3.49785	سیکنڈز	-0.6211315
-4.539242	سیکنڈلی	-0.2962738
-3.726329	سیکٹر	-0.4813928
-4.442332	سیکینڈ	-0.3482113
-2.057084	سے	-0.3544213
-3.163579	شئیر	-1.039666
-4.238213	شائستہ	-0.6443428
-4.664181	شادمان	-0.4689329
-4.664181	شارون	-0.294647
-4.840272	شارٹ	-0.2995501
-4.238213	شازیب	-0.3173541
-4.664181	شازیہ	-0.4771087
-4.840272	شام	-0.2946598
-4.840272	شامیر	-0.2999779
-4.664181	شاٹ	-0.4711774
-4.840272	شاپ	-0.2974203
-3.678904	شاہ	-0.5114073
-4.442332	شاہد	-0.4681394
-4.840272	شاہریار	-0.2999779
-4.840272	شاہزیب	-0.2524307
-4.840272	شاہمیر	-0.3008417
-4.296204	شاید	-0.2407435
-4.664181	شبنم	-0.470751
-4.840272	شجاعت	-0.2524307
-4.840272	شرابہ	-0.3008292
-4.840272	شرافت	-0.2972052
-4.442332	شرجیل	-0.4284307
-4.664181	شرم	-0.4771025
-4.840272	شرو	-0.2866574
-4.442332	شروع	-0.360523
-4.442332	شزا	-0.3172252
-4.840272	شعیب	-0.300939
-4.840272	شفٹ	-0.3008794
-4.840272	شفٹس	-0.3006911
-4.840272	شفٹوں	-0.2972052
-4.664181	شمس	-0.470751
-4.840272	شمسی	-0.3001162
-4.664181	شمیم	-0.4767792
-3.254812	شو	-0.9582241
-4.296204	شورٹ	-0.326265
-4.062121	شوٹ	-0.2308788
-4.840272	شوٹس	-0.3009923
-4.840272	شوپر	-0.2928416
-4.840272	شوکت	-0.2946598
-3.862549	شوگر	-0.3670895
-4.664181	شپ	-0.2519955
-4.664181	شک	-0.295801
-4.840272	شکایت	-0.2974203
-4.238213	شکر	-0.2548211
-3.206804	شکریہ	-0.6974397
-4.840272	شکیل	-0.2946598
-3.561519	شگر	-0.6142579
-4.840272	شہباز	-0.3007256
-3.840272	شہر	-0.5529858
-4.238213	شہروز	-0.379572
-4.840272	شہریار	-0.3009704
-4.664181	شہزاد	-0.2840525
-4.840272	شہناز	-0.3010237
-4.840272	شہید	-0.3010237
-4.539242	شی	-0.3935294
-4.840272	شیخ	-0.3009955
-4.840272	شیراز	-0.3009296
-4.840272	شیریار	-0.2999779
-4.664181	شیزاد	-0.2895463
-4.840272	شیزہ	-0.2524307
-4.840272	شیل	-0.3002137
-4.840272	شیم	-0.3010237
-3.819083	شیو	-1.033211
-3.266241	شیور	-0.4433272
-3.014198	شیک	-0.3435599
-3.862549	شیکس	-0.3325468
-3.819083	صاحب	-0.2194269
-4.840272	صارم	-0.2932314
-4.664181	صالح	-0.2975942
-4.840272	صبا	-0.3010143
-4.296204	صبح	-0.2792475
-4.664181	صبر	-0.2968252
-4.539242	صحاب	-0.2429184
-4.363151	صحیح	-0.3336954
-4.539242	صدر	-0.6020349
-4.664181	صدف	-0.4760692
-4.363151	صدیق	-0.7770991
-4.539242	صدیقی	-0.3493197
-3.37045	صرف	-0.2776613
-4.664181	صفی	-0.4760472
-4.840272	صفیہ	-0.3010237
-4.664181	صمد	-0.4767886
-4.840272	صوبہ	-0.3007444
-4.664181	صوبیہ	-0.470751
-4.840272	صوتی	-0.2980272
-4.664181	صور	-0.2902158
-4.840272	صورت	-0.2928416
-4.840272	صورتیں	-0.3010174
-4.442332	ضایع	-0.3576832
-4.296204	ضرور	-0.292749
-4.442332	ضرورت	-0.458133
-4.840272	ضمیر	-0.3000219
-4.296204	طارق	-0.3404805
-4.840272	طب	-0.3010112
-4.840272	طبعیت	-0.2866574
-4.840272	طحہ	-0.2999779
-3.48809	طرح	-0.2804475
-3.622788	طرف	-1.058726
-3.995174	طریقہ	-0.5332152
-4.664181	طریقے	-0.2923586
-4.840272	طلال	-0.3008417
-4.539242	طلحہ	-0.2945642
-3.965211	طور	-0.6480343
-4.840272	طیب	-0.3000219
-4.664181	طیبہ	-0.2523149
-4.840272	ظاھر	-0.3005655
-4.840272	ظاہری	-0.3000219
-4.363151	ظفر	-0.416878
-4.664181	ظفیر	-0.2840525
-4.664181	ظنیرہ	-0.2524167
-4.840272	ظہیر	-0.2946598
-4.062121	عائشہ	-0.2777274
-4.840272	عاتیقہ	-0.3010237
-4.840272	عارف	-0.2946598
-4.840272	عاطف	-0.3010143
-4.664181	عام	-0.3007727
-4.296204	عباد	-0.8440459
-4.141303	عباس	-0.4447801
-4.664181	عبدالباِسط	-0.4760692
-4.442332	عبدالرحمان	-0.6979179
-4.539242	عبدالمتین	-0.231304
-4.18706	عبدل	-0.2823237
-4.840272	عبدلرحمان	-0.2524307
-4.027359	عبدللہ	-0.4201484
-4.840272	عبدلوا	-0.3010237
-4.664181	عبدلواحد	-0.297357
-4.840272	عبدلواسع	-0.2999779
-4.840272	عبدلواِسع	-0.2999779
-4.840272	عبدلوحید	-0.3002137
-4.840272	عبّاس	-0.2524307
-4.840272	عتیق	-0.3000219
-4.539242	عثمان	-0.3974849
-4.18706	عجیب	-0.4102077
-4.664181	عدنان	-0.4761132
-4.141303	عدیل	-0.3687732
-4.442332	عرض	-0.6930261
-4.840272	عرفان	-0.2946598
-4.840272	عریب	-0.2999779
-3.222224	عریبیہ	-0.3392529
-4.539242	عریشا	-0.3934596
-4.840272	عریشمہ	-0.2524307
-4.840272	عزت	-0.3010143
-4.296204	عزیز	-0.2866463
-4.442332	عزیزہ	-0.6986374
-4.027359	عسکری	-0.5266941
-4.664181	عطیب	-0.476933
-4.442332	عظیم	-0.3652897
-4.840272	علاقہ	-0.2984565
-4.664181	علامہ	-0.3006974
-3.120113	علاوہ	-0.4076811
-4.840272	علم	-0.2928416
-4.840272	علمدار	-0.3010143
-3.649941	علی	-0.5589176
-4.539242	علیحدہ	-0.2958677
-4.840272	علیم	-0.3002137
-3.79888	علینہ	-0.5905191
-4.363151	عمار	-0.374575
-4.363151	عمارہ	-0.284649
-4.840272	عمان	-0.3010143
-4.027359	عمر	-0.2450641
-4.238213	عمران	-0.3288422
-4.664181	عمیر	-0.2905565
-4.840272	عورت	-0.3010143
-4.840272	عکاشہ	-0.3000219
-4.840272	عیان	-0.3009515
-4.539242	عید	-0.2923138
-4.840272	عیشل	-0.2946598
-4.539242	غائب	-0.3882659
-4.664181	غرض	-0.2828537
-4.840272	غرق	-0.2950861
-4.840272	غریب	-0.301008
-4.840272	غصہ	-0.2866574
-4.840272	غضنفر	-0.2946598
-3.726329	غلط	-0.3743712
-3.88603	غلطی	-0.3828732
-4.840272	غیرت	-0.3002671
-4.363151	فائدہ	-0.4109569
-4.840272	فائزہ	-0.3010206
-4.840272	فائف	-0.2524307
-4.840272	فائل	-0.3002294
-4.442332	فائن	-0.3183203
-2.397793	فائیو	-0.7321858
-4.840272	فاتھر	-0.3010174
-4.840272	فاخر	-0.3008417
-4.840272	فار	-0.3010237
-4.840272	فاروا	-0.2946598
-3.27798	فارورڈ	-0.479737
-4.296204	فاروق	-0.3901861
-4.840272	فاریہ	-0.2524307
-3.321758	فاسٹ	-0.3811069
-3.965211	فاطمہ	-0.5226284
-3.910853	فالو	-0.9535361
-4.539242	فانٹا	-0.5534607
-4.238213	فاِسٹ	-0.3107089
-4.840272	فاِنٹا	-0.2973507
-4.840272	فر	-0.2995501
-2.544705	فرائز	-0.4794775
-4.840272	فرائیڈ	-0.298305
-4.18706	فراز	-0.4115218
-4.840272	فرافت	-0.2524307
-2.616257	فرام	-1.487182
-4.840272	فرحان	-0.2946598
-4.840272	فرحین	-0.2946598
-3.478544	فردر	-1.360639
-4.840272	فردوس	-0.3010143
-3.238212	فرسٹ	-0.7873801
-4.141303	فرق	-0.3916525
-4.539242	فرقان	-0.3915093
-3.937182	فرما	-0.4533613
-4.840272	فرمائیگا	-0.2524307
-3.528518	فرمائیے	-0.6163555
-4.840272	فرمایا	-0.2524307
-4.840272	فرنچائز	-0.2866574
-3.995174	فری	-0.3807774
-4.840272	فریال	-0.2965654
-4.840272	فریج	-0.2972052
-4.539242	فریحہ	-0.2474984
-3.965211	فریش	-0.5133201
-4.664181	فریکوینسی	-0.2971608
-4.442332	فزا	-0.3547795
-4.442332	فس	-0.2953754
-3.37045	فش	-0.384084
-4.840272	فصیح	-0.3009704
-4.840272	فضا	-0.2997389
-4.840272	فضل	-0.2524307
-4.664181	ففتھ	-0.4770334
-3.159031	ففٹی	-0.6268473
-3.211884	ففٹین	-0.5745584
-4.539242	فقط	-0.5534607
-4.296204	فل	-0.3936434
-4.840272	فلانا	-0.300826
-4.840272	فلانے	-0.2972052
-4.363151	فلت	-0.5435062
-4.238213	فلحال	-0.283352
-4.664181	فلریس	-0.2948475
-4.840272	فلنگ	-0.301008
-4.09991	فلو	-0.6359303
-3.694144	فلور	-0.3416654
-3.260489	فلوری	-0.5643284
-4.840272	فلوقت	-0.3002294
-4.840272	فلی	-0.2524307
-3.649941	فلیور	-0.3788391
-4.296204	فلیورز	-0.3789125
-3.585	فلیٹ	-1.096238
-4.840272	فمیلی	-0.3001131
-4.539242	فن	-0.3969696
-4.840272	فنکشنل	-0.2965654
-4.840272	فواد	-0.3009515
-4.840272	فودپندہ	-0.2974203
-2.120113	فور	-0.7646847
-4.238213	فورا	-0.2857843
-4.539242	فورتھ	-0.3971708
-4.840272	فورس	-0.3009767
-4.18706	فورن	-0.2367537
-2.900753	فورٹی	-0.901104
-4.840272	فورٹیفائیو	-0.3004462
-3.819083	فورٹین	-0.3651738
-3.965211	فوری	-0.7497338
-4.363151	فوزیہ	-0.5425598
-4.840272	فول	-0.3000219
-4.238213	فولو	-0.9027699
-3.206804	فون	-0.4892958
-3.249208	فوڈ	-0.6251506
-4.664181	فِکر	-0.2997325
-4.027359	فکر	-0.5248635
-4.840272	فکس	-0.3010237
-4.539242	فہیم	-0.299147
-4.664181	فی	-0.4771118
-3.154531	فیز	-0.887519
-4.840272	فیزایڈ	-0.2973507
-4.840272	فیزبک	-0.3008982
-4.664181	فیزفائیو	-0.2923682
-4.840272	فیزہوتا	-0.2866574
-3.636153	فیسٹیول	-0.7951498
-4.840272	فیسڈ	-0.3009076
-3.779574	فیصل	-0.6790218
-4.840272	فیصلہ	-0.3008574
-4.363151	فیضان	-0.3373168
-4.840272	فیل	-0.2973507
-4.840272	فیلنگز	-0.3009327
-4.363151	فیلو	-0.5390772
-3.819083	فیلیٹ	-0.5567265
-4.664181	فیمس	-0.2995972
-4.840272	فیملی	-0.2928416
-3.321758	فینٹا	-0.4066906
-3.27798	فیو	-0.9982872
-4.840272	فیور	-0.2950861
-4.539242	فیڈ	-0.601674
-4.664181	فیکٹ	-0.2863492
-4.664181	قادر	-0.470751
-4.840272	قادریہ	-0.3010112
-4.840272	قارٹر	-0.3009108
-4.442332	قاسم	-0.3673333
-4.840272	قاعدہ	-0.3010206
-4.840272	قبل	-0.2965654
-4.539242	قراةالعین	-0.2966732
-4.840272	قربان	-0.2946598
-4.363151	قریب	-0.3314936
-4.664181	قریشی	-0.470751
-4.442332	قسم	-0.4686675
-4.238213	قصور	-0.5030377
-4.840272	قطعًا	-0.3009108
-3.88603	كے	-0.3213782
-3.779574	لئیے	-1.313129
-4.442332	لئے	-0.6503707
-4.840272	لا	-0.3006817
-4.840272	لاؤ	-0.2524307
-4.238213	لائبہ	-0.3613116
-4.539242	لائف	-0.3978365
-3.48809	لائن	-0.4567639
-4.664181	لائٹ	-0.296483
-4.442332	لائٹس	-0.2882303
-4.840272	لائٹلی	-0.3000219
-4.141303	لائیک	-0.5509204
-4.840272	لائے	-0.2524307
-4.840272	لاتا	-0.2978313
-4.840272	لاتی	-0.3009233
-4.539242	لاتے	-0.3941531
-4.840272	لاثی	-0.2999779
-2.520126	لارج	-0.7883804
-4.539242	لازمی	-0.5534607
-4.062121	لاسٹ	-0.5577804
-4.840272	لالہ	-0.3010237
-2.918586	لانچ	-1.377225
-4.664181	لاِسٹ	-0.2925378
-4.296204	لاٹے	-0.2325619
-4.363151	لاک	-0.4054179
-4.840272	لاکھانی	-0.3007413
-4.840272	لاکھوں	-0.3009359
-4.840272	لاگ	-0.3002671
-4.840272	لاھور	-0.2524307
-3.047881	لاہور	-0.6648493
-4.442332	لبرٹی	-0.6989512
-4.840272	لبریز	-0.2973507
-4.238213	لسٹ	-0.3221387
-4.664181	لطیف	-0.2997829
-4.840272	لمبی	-0.3000219
-4.539242	لنچ	-0.3972085
-4.539242	لنک	-0.3833728
-4.062121	لو	-0.2586442
-4.840272	لوؤن	-0.2946598
-4.664181	لوجز	-0.4770899
-4.539242	لودھی	-0.2515458
-4.840272	لونچ	-0.2524307
-4.840272	لوٹلو	-0.2962262
-4.664181	لوڈڈ	-0.4758805
-4.664181	لوک	-0.4770899
-4.664181	لوکل	-0.3009735
-3.995174	لوکیشن	-0.244315
-3.191912	لوگ	-0.2453632
-3.965211	لوگو	-0.4952624
-3.227489	لوگوں	-1.022469
-4.664181	لوگی	-0.428522
-4.840272	لوگے	-0.3008323
-4.027359	لوں	-0.2858211
-4.840272	لِڈ	-0.3010237
-4.363151	لڑکا	-0.2460625
-4.442332	لڑکی	-0.2394405
-4.840272	لک	-0.3010143
-4.840272	لکهیں	-0.3006346
-3.79888	لکھ	-0.4815207
-4.442332	لکھئیے	-0.245407
-3.995174	لکھا	-0.5049723
-4.840272	لکھتیں	-0.3001602
-4.238213	لکھوا	-0.3776914
-4.840272	لکھواؤ	-0.2524307
-4.664181	لکھوائی	-0.286187
-4.664181	لکھوائے	-0.2950924
-4.664181	لکھوانا	-0.285108
-4.442332	لکھوایا	-0.3474885
-4.840272	لکھوایۓ	-0.2960644
-4.664181	لکھی	-0.2820418
-4.18706	لکھیں	-0.2980298
-4.840272	لکھیے	-0.2979608
-4.363151	لکھے	-0.293774
-3.88603	لگ	-0.5315398
-4.18706	لگا	-0.311139
-4.664181	لگائے	-0.4721557
-4.840272	لگاتی	-0.2866574
-4.840272	لگاتے	-0.2953245
-4.238213	لگتا	-0.5885069
-4.840272	لگتی	-0.2866574
-4.840272	لگتیں	-0.2953245
-4.296204	لگی	-0.3762234
-4.840272	لگیں	-0.2998552
-4.238213	لگے	-0.3701714
-4.840272	لگےگا	-0.2524307
-3.425299	لی	-0.5730421
-3.709939	لیا	-0.6428525
-3.296204	لیتا	-1.148034
-3.550238	لیتی	-0.9943712
-4.062121	لیتے	-1.073476
-4.062121	لیجئیے	-1.030582
-4.840272	لیجئے	-0.2524307
-3.761091	لیجیئے	-0.4171795
-4.539242	لیس	-0.3821905
-4.840272	لیفٹ	-0.2950861
-4.840272	لیمیٹڈ	-0.3006911
-4.027359	لین	-0.3236005
-3.88603	لینا	-0.2986591
-4.840272	لینٹن	-0.3009892
-4.062121	لینڈ	-0.6202426
-4.840272	لینگویج	-0.2524307
-4.840272	لینگے	-0.2524307
-4.840272	لینی	-0.2524307
-4.442332	لینے	-0.2850039
-4.363151	لیول	-0.4055593
-3.694144	لیٹ	-0.3759768
-3.88603	لیٹر	-0.4583961
-4.840272	لیٹرلی	-0.2524307
-4.840272	لیٹریلی	-0.2928416
-3.385427	لیٹس	-0.4601206
-4.539242	لیڈ	-0.6018592
-3.145667	لیکن	-0.2903798
-4.840272	لیکے	-0.3007947
-4.840272	لیگا	-0.3009955
-3.177515	لیں	-0.3080212
-4.840272	لیںگی	-0.3006628
-2.923819	لیے	-0.4209433
-3.217023	لے	-0.497671
-4.840272	لےلو	-0.2524307
-4.840272	لےلیں	-0.2524307
-4.664181	مؤقف	-0.3004493
-4.840272	مئی	-0.2974203
-4.840272	مئے	-0.2983303
-4.840272	ماؤنٹین	-0.3010237
-4.840272	مائدہ	-0.290579
-4.840272	مائرہ	-0.2946598
-4.664181	مائزہ	-0.2512293
-3.585	مائلو	-0.4147427
-4.840272	مائنز	-0.2991753
-4.840272	مائنس	-0.2950861
-4.840272	مائیکرو	-0.3010112
-4.442332	مائے	-0.2993265
-4.664181	ماحول	-0.2505885
-4.296204	مادر	-0.8450353
-4.840272	مادم	-0.2524307
-4.840272	مارا	-0.3004242
-4.840272	مارتیں	-0.2953245
-4.840272	مارنے	-0.2866574
-4.539242	ماروں	-0.2860181
-4.840272	مارک	-0.2866574
-4.840272	ماریہ	-0.3009798
-4.442332	ماشااللہ	-0.2353147
-4.141303	مال	-0.5909659
-4.363151	مام	-0.729552
-4.840272	ماما	-0.2983303
-4.840272	مامو	-0.3010049
-4.238213	مانگ	-0.3276836
-4.840272	مانگتے	-0.2953245
-4.18706	ماڈل	-0.9539884
-4.18706	ماں	-0.4083484
-3.88603	ماہم	-0.5123601
-4.840272	ماہین	-0.3000219
-4.442332	مایا	-0.3177044
-3.09991	مایو	-0.4237098
-4.027359	مایونیز	-0.2545214
-4.664181	مبشر	-0.2911794
-4.840272	مبنٹ	-0.2972052
-4.840272	مبین	-0.3009641
-4.296204	مت	-0.2481579
-4.840272	متعلقہ	-0.3010018
-4.840272	متلبن	-0.3004839
-4.840272	متین	-0.2946598
-4.664181	مثلا	-0.2972273
-4.840272	مجال	-0.2993832
-4.664181	مجتبیٰ	-0.2939525
-4.840272	مجو	-0.290579
-3.819083	مجھ	-0.8777204
-2.291883	مجھے	-0.424732
-4.840272	مجید	-0.2946598
-4.840272	مجے	-0.3003299
-4.664181	محافظ	-0.428522
-4.442332	محسن	-0.2325655
-4.840272	محصول	-0.2973507
-4.840272	محلّہ	-0.2524307
-4.442332	محمود	-0.3499052
-4.09991	محمّد	-0.3243417
-4.840272	محھے	-0.3000848
-4.840272	محیح	-0.3010143
-3.363151	مخاطب	-1.041016
-4.442332	مدیحہ	-0.2994052
-4.840272	مدینہ	-0.3007758
-4.840272	مرا	-0.3001319
-4.664181	مراد	-0.2800712
-4.539242	مرتبہ	-0.2927393
-4.539242	مرتضیٰ	-0.6020443
-4.840272	مرد	-0.2995312
-4.840272	مرسیز	-0.3010237
-4.442332	مرضی	-0.4627519
-4.840272	مرچی	-0.3000848
-4.840272	مرکز	-0.3008543
-4.664181	مری	-0.476933
-3.910853	مریم	-0.5623606
-4.238213	مرینڈا	-0.3817586
-3.965211	مزید	-0.5200266
-2.855745	مس	-0.3400094
-4.062121	مسئلہ	-0.362809
-4.840272	مسترد	-0.3005718
-4.840272	مسجد	-0.2524307
-3.743362	مسز	-0.3053712
-4.840272	مسس	-0.3010237
-4.18706	مسسنگ	-0.3908163
-4.840272	مسطفیٰ	-0.2524307
-4.840272	مسلے	-0.3010143
-2.810889	مسٹر	-0.4432953
-3.609823	مسٹرڈ	-0.3621999
-4.363151	مسٹیک	-0.3717376
-4.840272	مشال	-0.3010206
-4.840272	مشرق	-0.3009735
-4.840272	مشن	-0.2866574
-4.539242	مشکل	-0.3827041
-4.664181	مشہور	-0.3009202
-4.840272	مشین	-0.3006346
-4.840272	مصروف	-0.2866574
-4.442332	مصطفیٰ	-0.2943859
-4.539242	مطابق	-0.591609
-3.355973	مطلب	-0.2685174
-4.363151	مظہر	-0.4078971
-4.664181	معاملہ	-0.3009892
-4.840272	معاویہ	-0.3000219
-3.111919	معذرت	-0.7290826
-4.840272	معلوم	-0.2965654
-4.18706	معلومات	-0.6918607
-4.840272	معمولی	-0.2524307
-4.664181	معیز	-0.2935921
-4.840272	مف	-0.2524307
-2.840272	مفن	-0.6320637
-4.09991	مفنز	-0.2717558
-4.539242	مفین	-0.5534607
-4.840272	مقابلے	-0.2928416
-4.840272	مقبول	-0.3000219
-4.442332	مقدّس	-0.424242
-4.840272	مقصد	-0.2524307
-3.761091	مل	-0.4060345
-3.937182	ملا	-0.316882
-4.539242	ملائکہ	-0.349253
-4.840272	ملازم	-0.2866574
-4.840272	ملازموں	-0.2983303
-4.840272	ملاقات	-0.2999433
-4.664181	ملانے	-0.2909965
-4.840272	ملایا	-0.3004242
-4.840272	ملت	-0.3008417
-4.664181	ملتا	-0.285794
-4.442332	ملتان	-0.2396646
-4.664181	ملنا	-0.2992068
-4.664181	ملنی	-0.4767981
-4.840272	ملنے	-0.3008009
-4.840272	ملٹی	-0.3010237
-3.709939	ملٹیپل	-0.6763459
-4.840272	ملٹیپلس	-0.298447
-3.550238	ملک	-0.5850797
-4.664181	ملی	-0.4627486
-4.238213	ملیر	-0.9030555
-4.840272	ملینیم	-0.3009986
-4.840272	ملیگا	-0.2980682
-4.664181	ملیں	-0.4759465
-4.840272	ملے	-0.2960644
-4.664181	ممّا	-0.428522
-4.840272	مناہل	-0.3009076
-4.442332	منصور	-0.6979179
-2.871789	منٹ	-0.4632195
-2.77769	منٹس	-0.7509532
-4.840272	منگ	-0.2524307
-4.539242	منگائیں	-0.2524062
-4.363151	منگوا	-0.2908713
-4.840272	منگواؤ	-0.2977712
-4.840272	منگواؤں	-0.2988634
-4.296204	منگوائی	-0.4752634
-4.840272	منگوائیں	-0.2524307
-4.840272	منگوائے	-0.3008009
-4.539242	منگواتی	-0.3802606
-4.664181	منگوانا	-0.4627486
-4.664181	منگوانی	-0.2948634
-4.238213	منگوایا	-0.3725908
-4.664181	منہ	-0.3008543
-4.664181	منہاج	-0.3009421
-4.840272	منہاس	-0.3008417
-3.761091	منی	-1.377253
-4.442332	منیب	-0.4760566
-4.442332	منیجر	-0.3592287
-4.840272	منیر	-0.2524307
-4.840272	منیش	-0.3008637
-4.539242	منیمم	-0.3861148
-4.664181	مو	-0.2905694
-3.743362	موبائل	-0.6821262
-3.743362	موجود	-0.5744333
-4.664181	موحسن	-0.2893369
-4.664181	مور	-0.300961
-4.840272	مورننگ	-0.3010237
-3.862549	موسٹ	-1.278547
-4.027359	موصول	-0.6905897
-3.937182	موقع	-0.6691759
-4.840272	مولتان	-0.2980682
-4.840272	مولز	-0.3009861
-4.539242	مومن	-0.3490003
-4.664181	مومنٹ	-0.2516793
-4.840272	مومنٹس	-0.3003425
-4.664181	مومینہ	-0.2524237
-4.539242	مونیب	-0.6010079
-4.840272	موٹرز	-0.3007444
-3.177515	موڈ	-1.373324
-4.840272	موکہ	-0.2524307
-3.442332	مچ	-0.5681058
-4.840272	مچاؤں	-0.2980682
-4.840272	مچائے	-0.3002137
-4.840272	مچھ	-0.299043
-4.664181	مڈ	-0.4771025
-4.840272	مکدونلڈ	-0.2524307
-4.840272	مکس	-0.3004399
-3.539242	مکڈونلڈز	-1.553461
-4.840272	مکی	-0.3001162
-4.840272	مگ	-0.2980714
-4.18706	مگر	-0.2886435
-4.840272	مں	-0.2976005
-4.664181	مہران	-0.3003425
-4.296204	مہربانی	-0.3212268
-4.840272	مہرنسا	-0.3010112
-4.539242	مہرین	-0.6010079
-4.840272	مہمانوں	-0.2946598
-4.840272	مہک	-0.3010237
-4.840272	مہیش	-0.3000219
-4.363151	می	-0.2964926
-4.840272	میئر	-0.3006409
-4.840272	میاں	-0.3000219
-4.664181	میدیکوس	-0.2974899
-4.840272	میر	-0.3010206
-2.989014	میرا	-0.3454505
-3.159031	میری	-0.4409988
-3.017451	میرے	-0.5157875
-4.664181	میزان	-0.4770805
-4.840272	میس	-0.3010174
-4.442332	میسج	-0.2490356
-2.155427	میعل	-0.5798897
-4.363151	میعلز	-0.331171
-3.528518	میل	-1.564185
-3.937182	میلز	-0.3859459
-4.840272	میلی	-0.2866574
-2.226959	میم	-0.5143159
-4.840272	میمبر	-0.2953245
-4.840272	میمن	-0.3010174
-4.840272	میمون	-0.3010174
-4.664181	میمونہ	-0.2512539
-3.995174	مینجمنٹ	-0.4250004
-4.442332	مینز	-0.361457
-3.417027	مینشن	-0.7486486
-4.840272	مینٹ	-0.2987751
-4.840272	مینٹل	-0.3010018
-4.840272	مینہ	-0.298447
-4.840272	مینی	-0.2980714
-3.460061	مینیجر	-0.5377892
-3.937182	مینیو	-0.2784612
-4.840272	مینیوز	-0.3009547
-4.664181	میو	-0.428522
-4.840272	میوزک	-0.3010206
-4.296204	میونیز	-0.4188949
-4.363151	میٹر	-0.2971581
-4.664181	میڈ	-0.4771025
-4.18706	میڈم	-0.3100623
-2.621474	میڈیم	-0.6789206
-4.363151	میڈیکل	-0.4259154
-2.168175	میک	-0.95437
-3.965211	میکڈونلڈ	-1.127492
-2.243675	میکڈونلڈز	-1.003639
-4.18706	میگا	-0.9512839
-1.728674	میں	-0.2921715
-4.664181	میںشن	-0.2915964
-4.539242	مے	-0.2919905
-4.442332	نئی	-0.3674527
-3.649941	نئیر	-0.3844212
-3.819083	نئیرسٹ	-0.695335
-4.840272	نئے	-0.3009202
-3.79888	نا	-0.3721919
-4.539242	نائلہ	-0.239567
-2.770235	نائن	-0.6582856
-3.027359	نائنٹی	-0.8010687
-3.779574	نائنٹین	-0.6118137
-4.363151	نائٹ	-0.4249135
-4.840272	ناجیب	-0.3009735
-4.664181	نادیہ	-0.301008
-4.664181	نارتھ	-0.301008
-3.88603	نارمل	-0.2544309
-4.840272	نارملی	-0.2993832
-4.664181	نازش	-0.2866606
-4.664181	ناشتہ	-0.2909259
-4.840272	ناصر	-0.2979608
-4.442332	ناظم	-0.6986374
-2.726329	نام	-0.8019459
-4.840272	ناو	-0.3010143
-4.664181	ناٹ	-0.3009359
-4.840272	ناکاش	-0.290579
-4.840272	ناینٹی	-0.2992887
-4.664181	نبمر	-0.2845578
-4.539242	نبیل	-0.2501232
-4.539242	نتھنگ	-0.2523254
-4.840272	نجیب	-0.3009076
-4.840272	ندا	-0.2972052
-4.840272	نذر	-0.3009202
-4.840272	نرم	-0.2997892
-4.840272	نزد	-0.3010143
-4.840272	نزیب	-0.2946598
-4.840272	نسیم	-0.2946598
-4.840272	نشیمن	-0.3009515
-4.539242	نظر	-0.3960507
-4.442332	نعمان	-0.3659079
-4.664181	نعیم	-0.2995406
-4.840272	نقاش	-0.2946598
-4.539242	نقصان	-0.2939653
-4.840272	نقلی	-0.2985449
-4.539242	نقوی	-0.2522658
-4.840272	نمائندہ	-0.2866574
-4.442332	نمائندے	-0.2878295
-2.228549	نمبر	-0.5542803
-4.539242	نمبرز	-0.2516758
-4.664181	نمک	-0.2513734
-3.080605	نو	-0.473038
-4.539242	نواز	-0.5956898
-4.664181	نور	-0.2946375
-4.539242	نورتھ	-0.6020443
-4.539242	نورمل	-0.3957545
-4.664181	نوشین	-0.428522
-4.09991	نون	-1.040054
-3.609823	نوٹ	-0.4684025
-4.840272	نوکری	-0.2972052
-3.761091	نوں	-0.3993649
-4.539242	نوید	-0.2902833
-4.840272	نوے	-0.2524307
-4.664181	نٹ	-0.2929119
-4.539242	نکال	-0.3899274
-4.840272	نکالنا	-0.3006471
-4.840272	نکالو	-0.2524307
-4.539242	نکالی	-0.383496
-4.027359	نکل	-0.530452
-4.539242	نکلا	-0.3829412
-4.840272	نکلتا	-0.2866574
-4.840272	نکلنا	-0.2866574
-4.840272	نکلنے	-0.3006691
-4.363151	نکلوا	-0.7761107
-4.840272	نکلوانی	-0.2953245
-4.442332	نکلے	-0.3591231
-4.238213	نگٹس	-0.8544907
-4.539242	نگیٹ	-0.5534607
-2.674435	نگیٹس	-0.5096013
-2.662736	نہ	-0.2865551
-4.840272	نہت	-0.301008
-4.664181	نہں	-0.2363244
-4.664181	نہی	-0.2996791
-1.990239	نہیں	-0.4000627
-4.539242	نی	-0.3919071
-4.539242	نیئرز	-0.600728
-4.840272	نیئرسٹ	-0.2524307
-3.995174	نیا	-0.3415393
-4.664181	نیبر	-0.4757892
-4.539242	نیز	-0.2483102
-4.840272	نیسلے	-0.2962262
-3.232817	نیم	-0.5656158
-3.518053	نیو	-0.4862221
-4.664181	نیور	-0.3010174
-4.840272	نیوز	-0.2974203
-4.18706	نیٹ	-0.3576392
-4.442332	نیچے	-0.2996382
-4.840272	نیڈ	-0.2988728
-2.846836	نیکسٹ	-1.22068
-4.840272	نیہں	-0.3009327
-2.117227	نے	-0.4070264
-4.840272	هو	-0.2966288
-4.840272	هوں	-0.3009892
-3.995174	و	-0.5530279
-3.79888	وا	-0.4153103
-4.840272	واؤ	-0.3010174
-4.840272	واؤں	-0.2989453
-4.442332	وائز	-0.4715588
-4.442332	وائس	-0.2878069
-3.48809	وائٹ	-0.6032332
-4.539242	وائڈ	-0.3900169
-4.442332	وائیڈ	-0.469198
-4.840272	وائیں	-0.2524307
-4.840272	وائیے	-0.2960644
-4.18706	وائے	-0.4131439
-4.840272	وادیں	-0.2524307
-4.840272	وارورڈ	-0.2972052
-4.840272	وارہی	-0.2978313
-4.363151	واز	-0.2518972
-4.664181	واسے	-0.4760692
-4.840272	واقع	-0.2928416
-3.080605	والا	-0.3998313
-4.664181	والوں	-0.2470546
-4.840272	والہ	-0.3007947
-3.315228	والی	-0.4302527
-3.40094	والے	-0.3065796
-4.664181	وانٹ	-0.2965559
-4.840272	وانے	-0.2993832
-4.840272	واِسع	-0.2999779
-4.840272	واِسے	-0.2999779
-4.664181	واٹ	-0.2475055
-4.141303	واٹر	-0.29704
-4.840272	واٹس	-0.3002671
-3.649941	واپس	-0.4384519
-4.840272	واپسی	-0.3001948
-4.238213	واپڈا	-0.6529332
-4.840272	واک	-0.2866574
-4.840272	واکنگ	-0.3010237
-4.664181	واہ	-0.2978155
-4.664181	وایا	-0.285108
-4.442332	وایں	-0.2408264
-4.664181	وایۓ	-0.2943031
-4.539242	واے	-0.6016269
-4.027359	وجہ	-0.4654972
-4.840272	وحید	-0.2999779
-2.155427	ودھ	-1.001716
-4.027359	ودھن	-0.5985104
-4.840272	ودھنوں	-0.3008511
-4.18706	ودھھ	-0.473442
-4.442332	ور	-0.2943477
-4.840272	ورانچ	-0.2972052
-4.664181	وردہ	-0.2946502
-4.840272	ورلڈ	-0.3010237
-4.18706	ورنہ	-0.3551706
-4.840272	ورٹھ	-0.3000313
-4.840272	ورک	-0.3010237
-4.664181	ورکنگ	-0.4771087
-4.539242	وری	-0.3492074
-4.539242	وریو	-0.2743119
-4.363151	وزٹ	-0.3402639
-4.363151	وسیم	-0.408864
-2.294347	وعلیکم	-1.254047
-3.995174	وغیرہ	-0.225972
-3.528518	وقت	-0.2725941
-4.238213	ول	-0.3255307
-4.840272	ولا	-0.3010018
-4.442332	ولی	-0.3484148
-4.840272	ولیج	-0.3009578
-4.363151	ولید	-0.3511462
-4.363151	ومن	-0.3416834
-2.152298	ون	-0.6090956
-4.664181	ونگ	-0.2939206
-4.840272	ونگز	-0.2980272
-3.290044	ونیلا	-0.5375515
-4.840272	وو	-0.290579
-4.840272	ووالا	-0.2993832
-4.840272	ووج	-0.2993832
-4.840272	وومن	-0.2524307
-4.539242	وومین	-0.3493197
-4.840272	ووٹ	-0.3007915
-4.664181	ووٹس	-0.4768828
-4.840272	ووڈ	-0.2928416
-4.840272	وُڈ	-0.298939
-4.442332	وٹس	-0.3678325
-4.238213	وچ	-0.4333888
-4.840272	وکی	-0.2977017
-4.539242	وں	-0.2941884
-2.319789	وہ	-0.2156005
-3.408909	وہاں	-0.538018
-4.840272	وہٹ	-0.2966288
-3.649941	وہی	-0.2912782
-4.840272	وہیں	-0.2999402
-4.840272	ویئر	-0.2524307
-4.296204	ویب	-0.4759717
-4.664181	ویجٹیبلز	-0.4771025
-4.840272	ویجی	-0.2979829
-4.664181	ویجیٹیبل	-0.2965591
-4.238213	ویری	-0.3291458
-4.539242	ویریفائی	-0.2940099
-3.561519	ویریفائے	-0.6488981
-4.539242	ویریفیکیشن	-0.2970532
-4.539242	ویسا	-0.2929119
-4.442332	ویسٹ	-0.2905244
-3.709939	ویسے	-0.3870679
-4.664181	ویل	-0.2942585
-4.840272	ویلا	-0.2866574
-4.539242	ویلاز	-0.5956898
-4.840272	ویلفئیر	-0.3009767
-4.664181	ویلو	-0.4768232
-4.840272	ویلڈ	-0.2965654
-3.321758	ویلکم	-0.6252136
-4.442332	ویلی	-0.2362333
-3.095979	ویلیو	-0.7959142
-4.840272	ویلیود	-0.300826
-4.840272	ویلیوڈ	-0.3010206
-4.840272	ویلیڈ	-0.2866574
-4.664181	وین	-0.2949175
-4.363151	ویو	-0.2801337
-4.840272	ویوس	-0.2946598
-3.040932	ویٹ	-0.8922816
-3.528518	ویٹنگ	-0.4120885
-4.840272	ویں	-0.3007068
-3.779574	وے	-0.3140267
-3.232817	ٹاؤن	-0.4540299
-2.804842	ٹائم	-0.4535929
-4.539242	ٹائمز	-0.2983271
-3.561519	ٹائمنگ	-0.7807765
-4.442332	ٹائمنگز	-0.2955883
-4.539242	ٹال	-0.2833898
-4.840272	ٹاور	-0.2866574
-4.840272	ٹاٹا	-0.3005718
-4.840272	ٹاپنگ	-0.2965654
-4.664181	ٹاک	-0.2952451
-4.840272	ٹاکنگ	-0.2987751
-4.840272	ٹرائی	-0.2524307
-3.451106	ٹرائے	-0.7779956
-3.840272	ٹرانسفر	-0.5531945
-4.840272	ٹرسٹ	-0.290579
-4.664181	ٹرمز	-0.2987719
-4.664181	ٹرن	-0.300848
-4.840272	ٹرپ	-0.2991816
-3.743362	ٹرپل	-0.6900105
-4.840272	ٹرین	-0.2965654
-4.442332	ٹریپل	-0.3644051
-4.539242	ٹریڈ	-0.601831
-4.840272	ٹریڈنگ	-0.3010112
-4.840272	ٹریک	-0.2990777
-4.840272	ٹرے	-0.2990777
-3.79888	ٹماٹو	-0.3847849
-2.285783	ٹو	-0.4445666
-4.09991	ٹوائز	-0.2841364
-4.840272	ٹوائس	-0.2977238
-3.014198	ٹوائے	-0.7112754
-4.840272	ٹواے	-0.2977238
-4.840272	ٹوماٹو	-0.2866574
-4.363151	ٹومیٹوز	-0.2917406
-4.442332	ٹونٹی	-0.2955056
-4.840272	ٹوویل	-0.2524307
-3.79888	ٹوویلو	-0.4448019
-3.88603	ٹووینٹی	-0.3632296
-4.664181	ٹوٹ	-0.2984596
-2.723001	ٹوٹل	-1.072633
-4.664181	ٹوٹلی	-0.3009829
-4.840272	ٹوٹوریل	-0.3010206
-4.664181	ٹوپ	-0.2855308
-4.363151	ٹوپنگ	-0.4883381
-4.840272	ٹویلو	-0.2524307
-4.840272	ٹویلوے	-0.2524307
-4.840272	ٹوین	-0.2524307
-3.001423	ٹوینٹی	-0.7058424
-4.840272	ٹِیسٹ	-0.2524307
-4.840272	ٹپ	-0.2999433
-4.664181	ٹکی	-0.3004744
-4.840272	ٹھائے	-0.2960644
-4.238213	ٹھنڈا	-0.2812546
-4.664181	ٹھنڈی	-0.286187
-4.664181	ٹھنڈے	-0.2521745
-4.840272	ٹھہر	-0.3009264
-4.840272	ٹھہرو	-0.2524307
-2.329727	ٹھیک	-1.648015
-3.622788	ٹی	-0.3324441
-4.840272	ٹیبل	-0.3007664
-4.539242	ٹیسٹ	-0.2979892
-4.840272	ٹیشو	-0.2980272
-4.664181	ٹیل	-0.2989201
-4.840272	ٹیلنگ	-0.298939
-4.664181	ٹیم	-0.2866379
-3.528518	ٹین	-0.348493
-4.840272	ٹینٹ	-0.2984565
-4.840272	ٹیٹرا	-0.300961
-4.840272	ٹیٹوریل	-0.301008
-2.860269	ٹیک	-1.396811
-4.664181	ٹیکر	-0.2945611
-4.840272	ٹیکرس	-0.3008606
-4.539242	ٹیکس	-0.3006785
-4.840272	ٹیکنگ	-0.3006691
-4.840272	ٹیکنیکل	-0.3009484
-4.840272	پ	-0.2972052
-4.840272	پآ	-0.2991816
-4.840272	پاؤنڈ	-0.2979829
-3.561519	پاؤنڈر	-0.3222235
-4.664181	پائز	-0.2978597
-4.141303	پائی	-0.2775895
-3.937182	پائے	-0.3907826
-4.840272	پار	-0.2965654
-4.840272	پارلر	-0.2866574
-4.840272	پارٹ	-0.2993832
-4.664181	پارٹنر	-0.2515352
-4.238213	پارک	-0.308392
-2.989014	پاس	-0.3177891
-3.48809	پانچ	-0.3898064
-4.664181	پانچوں	-0.2490214
-4.840272	پانچوی	-0.3007727
-4.363151	پانڈا	-0.2908497
-4.539242	پانڈہ	-0.3876882
-4.09991	پانی	-0.2596525
-4.840272	پاور	-0.3010143
-3.609823	پاِس	-0.3212274
-4.840272	پاکستان	-0.2983303
-4.296204	پاگل	-0.3267057
-4.840272	پایا	-0.2995312
-4.840272	پاے	-0.2960644
-4.664181	پبلک	-0.428522
-3.328389	پتا	-0.4091692
-4.664181	پتھر	-0.2862843
-4.442332	پتہ	-0.3632365
-4.840272	پحنچ	-0.2977017
-3.249208	پر	-0.3217601
-4.840272	پرائزوں	-0.2999402
-3.217023	پرائس	-0.5443195
-4.539242	پرائسز	-0.2927009
-4.840272	پرائم	-0.3010143
-4.363151	پرابلم	-0.3432487
-4.363151	پرانا	-0.3471884
-4.664181	پرانی	-0.2857096
-4.664181	پرانے	-0.2950606
-4.840272	پراٹھے	-0.2946598
-4.840272	پراڈکٹ	-0.3005058
-4.840272	پراک	-0.2524307
-3.995174	پرسن	-0.3316043
-4.840272	پرسنالی	-0.3009359
-4.296204	پرسنز	-0.4649349
-4.840272	پرسنل	-0.2984565
-4.840272	پرسنلی	-0.2984565
-4.840272	پرسنڈ	-0.3007852
-4.840272	پرسو	-0.2999433
-4.363151	پرسوں	-0.2997955
-4.840272	پرسیو	-0.2990777
-4.840272	پرل	-0.3010206
-4.840272	پرموشن	-0.3005058
-4.840272	پرمیشن	-0.2965654
-4.840272	پرنی	-0.3007068
-4.238213	پرو	-0.6531843
-3.636153	پروائیڈ	-0.5799991
-4.840272	پروان	-0.3009798
-4.840272	پرواہ	-0.2965654
-4.840272	پروبلم	-0.2524307
-4.840272	پروبلیم	-0.2524307
-4.442332	پروسیس	-0.2795639
-4.840272	پروسیسنگ	-0.3009798
-4.539242	پروف	-0.2456636
-4.062121	پروموشن	-0.4874313
-4.840272	پروموشنز	-0.2953245
-4.664181	پرووایڈ	-0.2931068
-4.840272	پروٹوکول	-0.2928416
-4.363151	پروپر	-0.2834911
-4.664181	پروڈکٹ	-0.4765971
-4.840272	پرہوگی	-0.2524307
-4.664181	پری	-0.2864563
-4.840272	پریشان	-0.2978313
-4.09991	پریشانی	-0.5284876
-4.664181	پریویس	-0.4693227
-4.840272	پریویسلی	-0.2928416
-4.840272	پریٹیو	-0.3009767
-4.840272	پس	-0.3001099
-3.910853	پسند	-0.9535362
-4.840272	پسندیدہ	-0.2965654
-4.18706	پشاور	-0.4172454
-4.840272	پل	-0.2995501
-4.442332	پلازا	-0.3129025
-4.296204	پلاٹ	-0.4253036
-3.995174	پلز	-1.097529
-3.910853	پلس	-0.3506665
-4.18706	پلن	-0.5624608
-4.840272	پلوشہ	-0.2524307
-2.979934	پلیز	-0.4241629
-2.492942	پلیس	-0.8517875
-4.840272	پلیسڈ	-0.2866574
-3.507834	پلین	-0.4914943
-4.840272	پن	-0.2973507
-4.840272	پنتالیس	-0.3004462
-4.363151	پنجاب	-0.3005168
-4.840272	پندرھوی	-0.3007727
-3.79888	پندرہ	-0.5949379
-4.539242	پندہ	-0.390601
-4.664181	پنچ	-0.3000722
-4.840272	پنک	-0.301008
-4.840272	پوئن	-0.2992887
-3.79888	پوائنٹ	-0.5994991
-4.840272	پوائنٹس	-0.2962262
-3.910853	پورا	-0.2576799
-4.664181	پورشن	-0.2519463
-4.840272	پورشنز	-0.2979608
-4.442332	پورٹ	-0.2945388
-4.296204	پوری	-0.2939112
-4.664181	پورے	-0.2994713
-4.840272	پوزیشن	-0.30087
-4.840272	پوسٹ	-0.3010174
-3.469204	پوسیبل	-0.5872096
-4.840272	پوسیبلیٹی	-0.2866574
-4.840272	پولسی	-0.3010174
-4.840272	پولیس	-0.2524307
-4.840272	پولیسیسز	-0.3008888
-4.840272	پونا	-0.3009296
-4.238213	پونے	-0.4374465
-4.840272	پوٹ	-0.2524307
-4.840272	پوٹلے	-0.3006848
-4.840272	پوٹیٹو	-0.2524307
-3.694144	پوچھ	-0.4743175
-4.09991	پوچھا	-0.2349746
-4.539242	پوچھتا	-0.3802606
-4.840272	پوچھتے	-0.2997389
-3.965211	پوچھنا	-0.6506832
-4.840272	پوچھنے	-0.2974203
-4.664181	پوچھو	-0.2905115
-4.840272	پوچھی	-0.2989453
-4.840272	پوچھیں	-0.3004901
-4.664181	پوچھے	-0.3002859
-4.840272	پِگلی	-0.3008355
-4.664181	پٹ	-0.2961659
-4.840272	پپلیس	-0.2973507
-4.840272	پپپر	-0.3007444
-4.296204	پچاس	-0.3359383
-4.840272	پچپن	-0.2974203
-4.840272	پچھلی	-0.3007727
-4.442332	پچھلے	-0.3003268
-4.664181	پچیانوے	-0.3000219
-4.539242	پچیس	-0.3969854
-4.363151	پڑا	-0.3725684
-4.363151	پڑتا	-0.3517447
-4.539242	پڑتی	-0.3776686
-4.840272	پڑھ	-0.2866574
-4.664181	پڑھا	-0.2524096
-4.840272	پڑھی	-0.3010206
-4.840272	پڑھے	-0.3010112
-4.840272	پڑیاں	-0.3007852
-4.840272	پڑیگا	-0.2524307
-4.027359	پڑے	-0.595059
-4.296204	پک	-0.3717153
-4.539242	پکل	-0.2503418
-4.664181	پکلز	-0.2950002
-4.664181	پکڑ	-0.2946216
-4.840272	پکڑا	-0.3006314
-4.840272	پکڑانا	-0.2524307
-4.840272	پکڑایا	-0.2866574
-4.840272	پکڑنا	-0.2866574
-4.840272	پھدو	-0.301008
-2.842449	پھر	-0.3852814
-4.840272	پھروں	-0.2524307
-4.840272	پھسا	-0.2973507
-4.664181	پھوڑ	-0.2998049
-4.840272	پھینک	-0.3009076
-3.518053	پہ	-0.2513563
-4.664181	پہلا	-0.3006
-3.965211	پہلی	-0.6499474
-2.973985	پہلے	-0.368446
-4.296204	پہنچ	-0.3941183
-4.18706	پہنچا	-0.3833136
-4.840272	پہنچائےیں	-0.2524307
-4.840272	پہنچی	-0.2953245
-4.442332	پہنچے	-0.461583
-3.779574	پی	-0.3299021
-4.840272	پیئے	-0.2950861
-4.840272	پیایبل	-0.2999559
-4.840272	پیبل	-0.2999559
-4.840272	پیتی	-0.301008
-4.840272	پیتے	-0.301008
-4.840272	پیج	-0.2999402
-4.840272	پیراگون	-0.3008574
-4.664181	پیز	-0.2967239
-4.442332	پیزا	-0.698948
-4.840272	پیزے	-0.3008574
-2.775814	پیس	-0.5808355
-3.004582	پیسز	-0.5106956
-3.743362	پیسے	-0.2891601
-4.664181	پیلس	-0.2966193
-4.840272	پیمانہ	-0.3006189
-4.840272	پیمننے	-0.300421
-2.721347	پیمنٹ	-0.9095864
-3.636153	پین	-1.217264
-4.664181	پینتالیس	-0.4765374
-4.664181	پینتیس	-0.4770271
-4.840272	پینسٹ	-0.3009359
-4.664181	پیوپل	-0.2524237
-4.840272	پیوپلز	-0.3010143
-4.840272	پیوں	-0.2993832
-3.348911	پیٹی	-0.3798713
-4.840272	پیٹیز	-0.2980272
-4.840272	پیٹیوں	-0.3010237
-4.664181	پیپر	-0.4768483
-4.18706	پیپسی	-0.2154498
-4.664181	پیپل	-0.2523746
-4.840272	پیچھلی	-0.3005843
-4.539242	پیچھلے	-0.2962579
-4.840272	پیچھے	-0.3010206
-3.79888	پیک	-0.3300081
-4.840272	پیکنگ	-0.3009892
-4.539242	پیکٹ	-0.2902608
-2.600973	پے	-0.3105856
-4.840272	پےایبل	-0.2999559
-4.840272	پےبرانچ	-0.3008794
-4.664181	چآ	-0.4769707
-4.442332	چا	-0.3644715
-3.88603	چائے	-0.5853267
-3.341962	چار	-0.2700948
-4.238213	چارج	-0.432507
-3.840272	چارجز	-0.330854
-4.238213	چاروں	-0.2686257
-4.840272	چاشتی	-0.2946598
-4.840272	چال	-0.2953245
-4.09991	چالیس	-0.3343277
-4.840272	چالیں	-0.2989926
-4.840272	چاپ	-0.3006597
-4.840272	چاکلیٹ	-0.2524307
-4.840272	چاکن	-0.3007162
-3.79888	چاھینگی	-1.293823
-3.995174	چاھیںگی	-0.4355521
-3.054943	چاہ	-1.347674
-4.840272	چاہئیے	-0.2524307
-4.664181	چاہئے	-0.428522
-3.937182	چاہتا	-0.6573054
-4.09991	چاہتی	-0.6256733
-4.840272	چاہتیں	-0.2953245
-4.363151	چاہتے	-0.5346345
-4.840272	چاہونگا	-0.2524307
-3.051397	چاہوں	-1.489847
-4.840272	چاہیئں	-0.2950861
-2.652752	چاہیں	-1.740431
-4.664181	چاہیںگے	-0.428522
-3.128465	چاہیے	-0.3809804
-4.840272	چاہیۓ	-0.2524307
-4.363151	چاہے	-0.4213076
-4.840272	چدائی	-0.301008
-4.840272	چرچ	-0.3008417
-3.88603	چل	-0.5785317
-4.296204	چلا	-0.3965136
-4.664181	چلتا	-0.4770993
-4.238213	چلو	-0.2474558
-4.062121	چلی	-0.8123327
-3.145667	چلیں	-0.5653167
-4.539242	چلے	-0.2939207
-4.18706	چند	-0.6986091
-4.840272	چوائس	-0.2965654
-4.840272	چوبیس	-0.3006597
-4.840272	چوتھا	-0.2984565
-4.664181	چوتھی	-0.4766034
-3.840272	چود	-0.4661634
-4.840272	چودائی	-0.2973507
-4.840272	چودو	-0.3002137
-4.664181	چودوں	-0.2928607
-4.664181	چودھری	-0.2927936
-4.840272	چول	-0.3007507
-4.840272	چولہوں	-0.2983303
-4.840272	چوڑا	-0.3004242
-4.442332	چوک	-0.3540546
-4.539242	چوکا	-0.2774065
-2.881231	چوکلیٹ	-0.6490446
-4.840272	چوکلیٹس	-0.2928416
-4.840272	چوکو	-0.3006094
-4.840272	چوہدری	-0.3008417
-4.840272	چپ	-0.3010237
-4.664181	چپس	-0.3000408
-3.550238	چپلی	-0.4587638
-3.460061	چپوٹلے	-0.555303
-4.363151	چک	-0.284903
-3.550238	چکا	-0.9086502
-4.539242	چکر	-0.2854365
-4.840272	چکروں	-0.2524307
-2.203784	چکن	-0.7523815
-3.862549	چکی	-0.5690858
-4.09991	چکے	-0.7578799
-4.840272	چھا	-0.2980682
-4.442332	چھبیس	-0.3006032
-4.840272	چھت	-0.2999402
-4.840272	چھوٹ	-0.2999244
-4.296204	چھوٹا	-0.2944019
-4.442332	چھوٹی	-0.2973064
-4.664181	چھوٹے	-0.2926657
-3.995174	چھوڑ	-0.5474551
-4.840272	چھڑک	-0.2991816
-4.840272	چھی	-0.3010237
-3.910853	چھے	-0.3752903
-4.840272	چیج	-0.3008794
-2.436295	چیز	-0.5236148
-4.840272	چیزوں	-0.2946598
-4.442332	چیزی	-0.6986248
-4.141303	چیزیں	-0.3062289
-4.539242	چیزے	-0.3978741
-4.664181	چیس	-0.428522
-4.363151	چیسٹ	-0.4210825
-4.840272	چیسی	-0.2997892
-4.840272	چین	-0.2983303
-3.433732	چینج	-0.5035416
-4.840272	چیپوٹلے	-0.2524307
-2.775814	چیک	-1.057089
-4.840272	چے	-0.2980682
-4.141303	ڈاؤن	-0.3308248
-4.296204	ڈائریکٹ	-0.3260726
-4.238213	ڈائریکٹلی	-0.2379052
-4.840272	ڈائل	-0.2984565
-4.363151	ڈائن	-0.5432957
-4.363151	ڈائننگ	-0.3374466
-3.539242	ڈائیٹ	-1.304179
-4.539242	ڈائیں	-0.3967967
-3.965211	ڈال	-0.4235896
-4.539242	ڈالا	-0.2844796
-4.840272	ڈالتا	-0.2978313
-4.840272	ڈالتے	-0.2953245
-4.840272	ڈالنا	-0.2524307
-4.840272	ڈالنی	-0.301008
-4.539242	ڈالوں	-0.3956882
-4.442332	ڈالی	-0.4626967
-4.664181	ڈالیں	-0.2522623
-4.363151	ڈالیے	-0.7731857
-4.840272	ڈالے	-0.290579
-4.840272	ڈانٹ	-0.3009986
-4.027359	ڈاکٹر	-0.4769832
-2.738182	ڈبل	-0.8153269
-4.840272	ڈبلیو	-0.2524307
-4.840272	ڈجٹس	-0.3003299
-3.743362	ڈرائیو	-0.7488251
-4.840272	ڈرائیور	-0.3006691
-4.840272	ڈرائیونگ	-0.2962262
-4.840272	ڈرامہ	-0.2973507
-4.296204	ڈراپ	-0.3934596
-2.303083	ڈرنک	-0.7407699
-3.819083	ڈرنکس	-0.2187506
-4.840272	ڈروپ	-0.2973507
-4.840272	ڈزنٹ	-0.3010237
-4.062121	ڈس	-0.4043705
-4.840272	ڈسن	-0.3010112
-4.840272	ڈسٹرب	-0.2977712
-4.840272	ڈسٹورشن	-0.3002294
-4.840272	ڈسٹینس	-0.3007852
-4.840272	ڈسپوزبل	-0.3006691
-4.840272	ڈسپینسر	-0.3006691
-4.062121	ڈسپیچ	-0.4435015
-4.840272	ڈسپیچڈ	-0.2866574
-3.965211	ڈسکاؤنٹ	-0.3212351
-3.678904	ڈسکاؤنٹڈ	-0.5591697
-4.141303	ڈسکس	-0.5008601
-4.840272	ڈسکنیکٹ	-0.2973507
-4.442332	ڈفرنس	-0.3492049
-4.09991	ڈفرنٹ	-0.313729
-4.664181	ڈلیور	-0.2905597
-4.539242	ڈن	-0.2294179
-4.363151	ڈو	-0.3486044
-4.840272	ڈوئنگ	-0.3010174
-4.840272	ڈواپ	-0.2973507
-4.09991	ڈور	-0.7780792
-3.761091	ڈونٹ	-0.3714973
-4.664181	ڈویجن	-0.2522377
-4.539242	ڈٹیلس	-0.3969696
-4.09991	ڈپ	-0.3575573
-4.840272	ڈپس	-0.2950861
-4.539242	ڈھائی	-0.3977109
-4.840272	ڈھابے	-0.3006691
-4.840272	ڈھاکہ	-0.3010237
-4.840272	ڈھونڈنے	-0.2989894
-4.840272	ڈھیر	-0.3010206
-4.840272	ڈی	-0.2524307
-4.840272	ڈیئر	-0.2988066
-4.442332	ڈیبٹ	-0.6989135
-4.664181	ڈیجٹس	-0.4714158
-4.442332	ڈیجیٹ	-0.4710088
-4.363151	ڈیر	-0.3438567
-3.709939	ڈیزرٹ	-0.9689804
-4.442332	ڈیزرٹس	-0.454282
-4.442332	ڈیزوں	-0.4766473
-4.539242	ڈیفالٹ	-0.292605
-3.573101	ڈیفینس	-0.4430781
-4.840272	ڈیفینیٹلی	-0.3001099
-2.67592	ڈیل	-0.5549654
-3.819083	ڈیلز	-0.3503959
-4.664181	ڈیلنگ	-0.2961913
-4.141303	ڈیلکس	-0.3435879
-4.840272	ڈیلی	-0.300826
-2.731369	ڈیلیور	-0.7704973
-4.09991	ڈیلیورڈ	-0.278349
-2.674435	ڈیلیوری	-0.6477731
-4.296204	ڈیلیٹ	-0.3337418
-4.664181	ڈیلیں	-0.2928352
-4.664181	ڈیلے	-0.2941247
-4.363151	ڈین	-0.542994
-4.664181	ڈینائے	-0.4726567
-4.840272	ڈینگی	-0.2988728
-4.840272	ڈیو	-0.2524307
-4.442332	ڈیوائل	-0.6989104
-4.840272	ڈیورنگ	-0.3008386
-4.840272	ڈیولپمنٹل	-0.3010143
-3.550238	ڈیٹ	-0.2997258
-4.840272	ڈیٹا	-0.3009861
-3.965211	ڈیٹس	-0.4717177
-3.622788	ڈیٹیل	-0.6865334
-3.561519	ڈیٹیلز	-0.7728956
-4.539242	ڈیپارٹ	-0.2864238
-3.709939	ڈیپارٹمنٹ	-0.4873221
-4.18706	ڈیڑھ	-0.4096079
-3.266241	ڈے	-0.5014892
-4.840272	کئے	-0.2524307
-2.082118	کا	-0.3437565
-4.840272	کاؤنٹر	-0.2999402
-4.539242	کائنات	-0.3891151
-4.840272	کائنڈ	-0.2928416
-4.442332	کائنڈلی	-0.6503707
-2.794949	کائینڈلی	-0.6008455
-4.539242	کار	-0.3796133
-4.840272	کارخانہ	-0.2866574
-4.840272	کارساز	-0.2524307
-3.88603	کارڈ	-0.3696222
-4.363151	کارڈیموم	-0.7780477
-4.363151	کارک	-0.7780948
-4.664181	کاری	-0.2500174
-4.840272	کاسمن	-0.3010237
-4.840272	کاسی	-0.3008417
-4.539242	کاشف	-0.3915634
-4.539242	کاشفہ	-0.2430403
-4.840272	کاظمہ	-0.3010237
-3.528518	کافی	-0.3377419
-2.294965	کال	-0.6553479
-4.18706	کالج	-0.3283759
-4.442332	کالز	-0.2968538
-2.746851	کالنگ	-1.649133
-3.937182	کالونی	-0.4907635
-4.664181	کالیں	-0.2949684
-3.79888	کام	-0.3888047
-4.238213	کامران	-0.2635322
-4.664181	کاٹ	-0.2973127
-4.840272	کاٹنی	-0.2965654
-4.840272	کاٹی	-0.3002137
-4.840272	کاٹے	-0.3010237
-3.442332	کاپوچینو	-0.4282191
-4.840272	کاہوں	-0.300961
-3.965211	کب	-0.3075669
-4.363151	کباب	-0.7763124
-3.862549	کبھی	-0.3253669
-4.840272	کتاب	-0.2866574
-4.840272	کتن	-0.3009735
-3.910853	کتنا	-0.41318
-3.573101	کتنی	-0.458943
-3.272071	کتنے	-0.4813594
-4.363151	کدھر	-0.409301
-1.866683	کر	-1.125711
-4.141303	کرئیے	-0.7344729
-3.678904	کرا	-0.5859115
-4.539242	کراؤ	-0.2474735
-4.840272	کرائیے	-0.2524307
-4.840272	کراتا	-0.2866574
-4.840272	کراتے	-0.2953245
-4.840272	کراس	-0.2989453
-4.539242	کرانا	-0.2937612
-3.182261	کراچی	-0.6133711
-4.141303	کرایا	-0.7244407
-4.840272	کراینگے	-0.290579
-3.573101	کرتا	-0.6257479
-3.779574	کرتی	-0.5903992
-4.296204	کرتیں	-0.5918949
-3.393114	کرتے	-0.535121
-4.840272	کرد	-0.3010237
-4.363151	کردو	-0.729552
-4.664181	کردوں	-0.428522
-4.363151	کردیجئے	-0.729552
-4.840272	کردیجیئے	-0.2960644
-4.840272	کردینا	-0.2524307
-3.393114	کردیں	-1.699589
-4.840272	کرراہیۓ	-0.2960644
-4.539242	کرریکٹ	-0.2481189
-4.840272	کرس	-0.2524307
-4.840272	کرسپ	-0.2980714
-3.649941	کرسپی	-1.442762
-4.664181	کرلو	-0.428522
-4.840272	کرلیئگا	-0.2524307
-4.840272	کرلیتے	-0.2953245
-4.664181	کرلیجئے	-0.428522
-4.238213	کرلیں	-0.8544907
-4.840272	کرلے	-0.2524307
-4.363151	کرم	-0.3292772
-2.348211	کرنا	-1.242169
-4.664181	کرنل	-0.3010017
-4.442332	کرنچ	-0.696245
-3.266241	کرنی	-0.8894154
-3.260489	کرنے	-0.9410411
-3.726329	کرو	-0.3410223
-4.664181	کروآ	-0.4754525
-2.890882	کروا	-0.757687
-4.539242	کرواؤ	-0.3000879
-4.539242	کرواؤں	-0.2408804
-3.995174	کروائی	-0.6081439
-3.862549	کروائیں	-0.3664024
-4.296204	کروائیے	-0.2688865
-4.09991	کرواتا	-0.725973
-4.18706	کرواتی	-0.6900234
-4.840272	کرواتیں	-0.2989453
-4.539242	کرواتے	-0.3920025
-4.664181	کروادیتی	-0.4739226
-4.664181	کروادیں	-0.2904922
-4.664181	کروالیجیے	-0.428522
-3.172819	کروانا	-0.9659594
-4.062121	کروانی	-0.6482586
-4.296204	کروانے	-0.3818293
-3.518053	کروایا	-0.713254
-4.840272	کروایے	-0.2953245
-3.335122	کروں	-0.6136666
-4.840272	کروے	-0.2980272
-4.840272	کرپسی	-0.2991911
-4.840272	کرک	-0.3009735
-4.840272	کرہے	-0.3009798
-4.442332	کری	-0.4622782
-2.692596	کریسپی	-0.5684109
-3.433732	کریم	-0.2853086
-4.840272	کریمز	-0.2974203
-4.840272	کریمل	-0.3009547
-4.539242	کریڈیٹ	-0.3978584
-4.539242	کریکٹ	-0.2943923
-4.840272	کریکٹر	-0.2973507
-2.867145	کریں	-0.5277271
-4.840272	کریںوہ	-0.2977238
-4.442332	کریے	-0.6940045
-3.743362	کرے	-0.3221943
-3.062121	کس	-0.5629745
-4.840272	کسٹرڈ	-0.3009986
-3.328389	کسٹمر	-0.4958341
-4.664181	کسٹمرز	-0.29192
-3.518053	کسی	-0.347764
-4.539242	کش	-0.6006273
-4.840272	کشمیر	-0.3010206
-3.507834	کل	-0.34313
-4.363151	کلئیر	-0.3408599
-4.840272	کلائنٹ	-0.2988728
-4.296204	کلاک	-0.3419389
-4.141303	کلب	-0.3735401
-4.664181	کلثوم	-0.2867449
-4.296204	کلر	-0.3186667
-4.296204	کلفٹن	-0.5531413
-4.442332	کلو	-0.4770522
-4.09991	کلوز	-0.3983632
-4.840272	کلوزسٹ	-0.3009735
-4.840272	کلوزنگ	-0.3007099
-4.442332	کلوس	-0.6952907
-4.840272	کلوک	-0.2932314
-4.840272	کلٹیکس	-0.299698
-4.664181	کلک	-0.2988381
-4.664181	کلی	-0.4770397
-4.840272	کلیم	-0.2946598
-4.840272	کلین	-0.3008574
-4.539242	کلینک	-0.5995749
-4.539242	کلیکٹ	-0.5972562
-3.726329	کم	-0.3075907
-4.840272	کمبینیشن	-0.3008166
-4.442332	کمرشل	-0.4284763
-4.840272	کمنگ	-0.2524307
-4.664181	کمٹمنٹ	-0.4726567
-2.923819	کمپلین	-0.4196076
-4.363151	کمپلینز	-0.2903251
-4.840272	کمپلیننگ	-0.2991753
-3.095979	کمپلیٹ	-0.8103873
-4.840272	کمپلیٹلی	-0.3010018
-4.840272	کمپنی	-0.3007758
-4.840272	کمیونکیٹ	-0.2950861
-4.539242	کن	-0.2971672
-4.18706	کنال	-0.4768546
-4.840272	کنزیوم	-0.2977712
-4.664181	کنزیومرز	-0.4771118
-3.49785	کنسرن	-0.4122889
-4.363151	کنسرنڈ	-0.5414977
-4.539242	کنسلیشن	-0.2507928
-2.527461	کنفرم	-1.017616
-3.080605	کنفرمیشن	-0.5921894
-4.840272	کنفرنٹ	-0.2977712
-4.664181	کنفیوژن	-0.473442
-4.840272	کنو	-0.3010237
-4.840272	کنورٹ	-0.2524307
-4.840272	کنوے	-0.2950861
-4.664181	کنٹرول	-0.4770962
-4.442332	کنٹینیو	-0.4712664
-4.840272	کنڈریل	-0.2524307
-4.840272	کنڈیشن	-0.3010206
-4.840272	کنڈیشنز	-0.3010237
-4.840272	کنیکشن	-0.3010018
-4.363151	کنیکٹ	-0.2894497
-2.207815	کو	-0.3443492
-4.238213	کوآرڈینیٹ	-0.8971461
-4.539242	کوآپریٹیو	-0.3978804
-4.840272	کوئلہ	-0.3010174
-4.18706	کوئٹہ	-0.3412365
-2.668546	کوئی	-0.3584826
-4.840272	کوائٹ	-0.3010049
-4.539242	کوالٹی	-0.2961659
-3.528518	کواٹر	-0.9520286
-4.840272	کواپریشن	-0.2980682
-4.840272	کوبھائی	-0.2988066
-4.664181	کورنر	-0.2996444
-4.840272	کورنگی	-0.2999402
-4.18706	کورنیٹو	-0.2432804
-4.664181	کورٹ	-0.2432625
-4.539242	کورپریشن	-0.287506
-4.664181	کورپریٹ	-0.4756885
-4.840272	کورڈ	-0.2965654
-4.027359	کوسٹ	-0.4490902
-4.238213	کوشش	-0.3686181
-4.840272	کوفز	-0.3006911
-3.609823	کوفی	-0.3783623
-4.539242	کوفیز	-0.2924098
-4.664181	کول	-0.2363244
-4.840272	کولا	-0.2524307
-4.840272	کولج	-0.3009296
-4.840272	کولز	-0.2973507
-4.840272	کولنگ	-0.2985449
-4.442332	کولونی	-0.3144417
-4.664181	کولٹی	-0.428522
-4.141303	کولڈ	-0.5980104
-4.840272	کولیٹی	-0.2988728
-4.840272	کولیگ	-0.2972052
-3.150076	کومپلیمنٹری	-0.6244608
-4.840272	کومپلیمینٹ	-0.2928416
-4.840272	کومپلیمینٹری	-0.2524307
-4.840272	کومپلینٹ	-0.2866574
-4.664181	کومپلیکس	-0.2485332
-4.442332	کومپنسیشن	-0.2901643
-4.442332	کومپنسیٹ	-0.2928544
-3.001423	کون	-0.7627132
-3.840272	کونسا	-0.3511977
-3.937182	کونسی	-0.3677253
-4.442332	کونسے	-0.298264
-4.840272	کونفرمڈ	-0.2524307
-4.664181	کونٹینینٹل	-0.2971862
-3.585	کونٹیکٹ	-0.5820847
-4.840272	کوورج	-0.3008009
-4.840272	کوٹیجس	-0.3007256
-4.840272	کوپرائٹ	-0.2962262
-4.539242	کوڈ	-0.3751008
-2.432032	کوک	-0.7531676
-4.840272	کوکا	-0.3010237
-4.238213	کوکی	-0.2555349
-4.442332	کوکیز	-0.31756
-4.539242	کویری	-0.2835139
-4.840272	کویریز	-0.2974203
-4.840272	کوے	-0.3007947
-4.141303	کٹ	-0.3869263
-4.238213	کپ	-0.3646022
-4.840272	کچ	-0.2965654
-4.840272	کچا	-0.2995312
-3.040932	کچھ	-0.4420876
-4.840272	کڈز	-0.2979829
-4.840272	کڈی	-0.2979829
-4.062121	کڑک	-0.668649
-4.141303	کھا	-0.2894143
-4.840272	کھاؤ	-0.2993202
-4.664181	کھاؤں	-0.2953722
-4.840272	کھائیں	-0.2993832
-4.840272	کھائے	-0.3008009
-4.442332	کھاتا	-0.3184258
-4.840272	کھاتی	-0.3006032
-4.539242	کھاتے	-0.6012248
-3.779574	کھانا	-0.2755304
-4.664181	کھانی	-0.4627486
-4.539242	کھانے	-0.2826149
-4.840272	کھاِنا	-0.3009829
-4.664181	کھایا	-0.299106
-4.840272	کھلا	-0.3004242
-4.664181	کھلی	-0.2864563
-4.363151	کھول	-0.4135146
-4.539242	کھولا	-0.2338196
-4.840272	کھولنے	-0.3006691
-4.363151	کھڑا	-0.4067281
-4.840272	کھڑی	-0.2978313
-4.664181	کھڑے	-0.473442
-2.905774	کہ	-0.386532
-4.840272	کہئے	-0.2960644
-3.115997	کہا	-0.4527851
-4.664181	کہانی	-0.3009202
-3.709939	کہاں	-0.4554607
-4.141303	کہتا	-0.7213745
-4.664181	کہتی	-0.2833506
-4.664181	کہتیں	-0.4714158
-3.694144	کہتے	-0.9794887
-4.442332	کہنا	-0.2836707
-4.840272	کہنے	-0.3010018
-4.840272	کہو	-0.290579
-4.664181	کہوں	-0.3001979
-3.779574	کہہ	-0.7257497
-4.664181	کہی	-0.4766662
-3.965211	کہیں	-0.4219799
-4.840272	کہیںسے	-0.3002137
-4.664181	کہیے	-0.4721557
-4.442332	کہے	-0.289672
-1.958602	کی	-0.5130188
-2.915993	کیئر	-1.877056
-2.126362	کیا	-0.6719767
-4.840272	کیالیکن	-0.2989453
-4.296204	کیجئے	-0.7964988
-2.482337	کیجیئے	-1.011262
-4.840272	کیجیے	-0.2524307
-3.743362	کیجیۓ	-1.349341
-3.937182	کیریمل	-0.3635653
-4.664181	کیس	-0.2983776
-4.664181	کیسی	-0.3008856
-3.910853	کیسے	-0.3601496
-2.743362	کیش	-0.7465447
-4.840272	کیفے	-0.2962262
-4.664181	کیل	-0.3006251
-4.539242	کیلاش	-0.6010079
-4.840272	کیلکیولیٹ	-0.2977712
-4.840272	کیم	-0.290579
-4.363151	کیمپس	-0.2307807
-4.238213	کین	-0.2838826
-3.561519	کینسل	-0.4637206
-4.09991	کینٹ	-0.4907635
-4.840272	کینیڈا	-0.2524307
-3.111919	کیو	-0.652751
-4.664181	کیوری	-0.2363244
-4.18706	کیونکہ	-0.3263511
-3.172819	کیوں	-0.4428273
-4.840272	کیٹ	-0.2524307
-4.664181	کیٹچ	-0.4768012
-4.840272	کیپ	-0.3002671
-4.539242	کیپوچینو	-0.5534607
-4.539242	کیپٹین	-0.3979118
-4.840272	کیپچینو	-0.2524307
-4.442332	کیچ	-0.6986499
-4.539242	کیچپ	-0.2800547
-3.48809	کیک	-0.3268787
-3.743362	کیکس	-0.3357548
-3.238212	کیے	-0.740131
-1.836812	کے	-0.3810387
-4.840272	گآئے	-0.3001602
-3.266241	گئی	-0.4480414
-3.726329	گئے	-0.507897
-1.944298	گا	-0.5162367
-4.664181	گائز	-0.2986931
-3.636153	گائیڈ	-0.5903246
-4.840272	گائے	-0.2524307
-3.88603	گارلک	-0.815359
-4.539242	گارڈ	-0.2934453
-3.862549	گارڈن	-0.4906183
-4.840272	گاری	-0.2928416
-4.664181	گارینٹی	-0.2961342
-4.840272	گالیاں	-0.2989453
-4.840272	گاڑی	-0.3010237
-4.664181	گجراں	-0.3006628
-4.442332	گر	-0.4764495
-4.664181	گرا	-0.3002828
-4.840272	گراؤنڈ	-0.3009422
-4.664181	گرامر	-0.477093
-4.840272	گرانڈ	-0.2524307
-3.296204	گرل	-0.4628193
-3.561519	گرلز	-0.3947119
-4.539242	گرم	-0.2994556
-4.840272	گرمی	-0.3006409
-4.840272	گروپ	-0.3010237
-4.840272	گری	-0.3008355
-4.840272	گریم	-0.2524307
-4.664181	گرین	-0.3006597
-2.783367	گرینڈ	-1.131026
-4.840272	گریڈ	-0.2990777
-4.840272	گزار	-0.2978313
-4.840272	گزر	-0.3005938
-4.840272	گلاِس	-0.3010206
-3.79888	گلبرگ	-0.4478203
-4.296204	گلریز	-0.3395235
-3.965211	گلستان	-0.6444581
-4.840272	گلش	-0.3009515
-3.965211	گلشن	-0.9029394
-4.664181	گلف	-0.4770899
-4.664181	گلی	-0.283997
-4.840272	گلیستان	-0.3009233
-4.840272	گندہ	-0.2932314
-4.840272	گندی	-0.3008919
-4.840272	گندے	-0.3008009
-4.840272	گو	-0.3010237
-4.664181	گوا	-0.4770522
-4.18706	گواوا	-0.4216124
-4.840272	گوبھی	-0.3010143
-4.840272	گولف	-0.3009986
-4.840272	گولی	-0.3010174
-4.539242	گوگل	-0.6009701
-3.779574	گڈ	-1.361474
-4.840272	گھاری	-0.3009202
-3.507834	گھر	-0.3927824
-4.664181	گھروں	-0.2863492
-4.664181	گھنٹوں	-0.4689329
-3.636153	گھنٹہ	-0.5767705
-3.528518	گھنٹے	-0.4918134
-4.664181	گھوم	-0.2984596
-4.840272	گھوما	-0.2946598
-4.664181	گھٹنے	-0.2963245
-4.664181	گھٹیا	-0.3008762
-2.405703	گی	-0.4762417
-2.998288	گیا	-0.4538963
-3.995174	گیارہ	-0.5494036
-4.363151	گیس	-0.4185053
-4.840272	گیسٹ	-0.3010237
-4.664181	گیند	-0.4757829
-4.363151	گیون	-0.3311875
-3.88603	گیٹ	-0.3374478
-4.840272	گیٹنگ	-0.298939
-2.568431	گے	-0.546285
-4.840272	ں	-0.3000376
-4.664181	ھو	-0.2963594
-4.840272	ھوم	-0.3001099
-4.840272	ھوگی	-0.2524307
-4.840272	ہا	-0.2989453
-4.664181	ہاؤ	-0.3009923
-2.677409	ہاؤس	-1.167431
-3.910853	ہاؤسنگ	-0.7971424
-4.664181	ہائقہ	-0.4760692
-4.664181	ہائی	-0.300939
-4.664181	ہائیر	-0.3008731
-4.840272	ہائیپر	-0.2866574
-4.539242	ہاتھ	-0.5938716
-4.840272	ہار	-0.3006691
-4.664181	ہارون	-0.3009672
-4.539242	ہارڈ	-0.3889934
-4.840272	ہارڈلی	-0.2989989
-3.965211	ہاف	-0.378866
-4.296204	ہال	-0.2775058
-4.840272	ہانگ	-0.2524307
-4.363151	ہاور	-0.3431462
-4.141303	ہاٹ	-0.7401776
-2.641615	ہاں	-0.6760873
-3.88603	ہر	-0.4541409
-4.840272	ہرفن	-0.3004901
-4.840272	ہرلی	-0.300666
-4.141303	ہزار	-0.326203
-4.664181	ہسبنڈ	-0.297183
-4.363151	ہسٹری	-0.2854593
-4.840272	ہسپتال	-0.3002137
-3.550238	ہش	-1.590481
-4.840272	ہشیور	-0.3007884
-4.840272	ہفتہ	-0.2524307
-4.840272	ہفتے	-0.3008982
-4.539242	ہل	-0.6020349
-4.840272	ہلاں	-0.3004901
-4.664181	ہلکی	-0.4766568
-3.222224	ہم	-0.4532303
-3.79888	ہمارا	-0.2684808
-3.819083	ہماری	-0.4682323
-3.433732	ہمارے	-0.6310096
-4.840272	ہمدان	-0.2950861
-4.840272	ہمدرد	-0.2524307
-4.664181	ہمہ	-0.470751
-4.141303	ہمیشہ	-0.3084461
-3.678904	ہمیں	-0.2469304
-4.664181	ہنس	-0.4762232
-4.840272	ہنسنے	-0.2974203
-4.840272	ہنڈ	-0.2524307
-2.568431	ہنڈریڈ	-0.8582916
-4.840272	ہنی	-0.3009233
-2.07386	ہو	-1.054373
-3.348911	ہوئی	-0.6716504
-3.694144	ہوئے	-0.3801158
-2.855745	ہوا	-0.7428578
-4.840272	ہوائیں	-0.2953245
-3.007764	ہوتا	-0.6656977
-3.107879	ہوتی	-0.7948123
-4.664181	ہوتیں	-0.4714158
-3.308793	ہوتے	-0.789481
-4.664181	ہوجائیں	-0.428522
-4.840272	ہوجائےگا	-0.2524307
-4.840272	ہورہا	-0.2524307
-4.442332	ہوسپیٹل	-0.2772276
-4.840272	ہوسکتا	-0.2524307
-3.254812	ہولڈ	-0.6218246
-3.726329	ہولڈنگ	-0.6453221
-3.743362	ہوم	-0.9518299
-4.840272	ہون	-0.2996916
-3.937182	ہونا	-0.4267581
-4.664181	ہونگی	-0.428522
-4.539242	ہونی	-0.395458
-4.840272	ہونیسٹ	-0.3004901
-4.141303	ہونے	-0.3824148
-4.840272	ہووے	-0.2953245
-3.348911	ہوٹ	-0.8366351
-4.363151	ہوٹل	-0.2245112
-4.664181	ہوپ	-0.3004838
-4.840272	ہوگئے	-0.2524307
-3.636153	ہوگا	-1.456551
-3.636153	ہوگی	-1.456551
-4.840272	ہوگیا	-0.2524307
-2.134409	ہوں	-0.5604984
-4.840272	ہویں	-0.2953245
-4.840272	ہویے	-0.3009578
-4.296204	ہٹ	-0.2910191
-4.840272	ہٹا	-0.2946598
-4.840272	ہہاں	-0.2966288
-2.716421	ہی	-0.3222655
-4.664181	ہیئر	-0.2987719
-4.840272	ہیرا	-0.2946598
-4.664181	ہیروز	-0.2432625
-4.840272	ہیز	-0.3002294
-3.004582	ہیش	-1.259726
-2.903256	ہیلو	-1.008436
-4.363151	ہیلپ	-0.4233952
-4.840272	ہیم	-0.2991911
-4.664181	ہینڈ	-0.252171
-4.840272	ہینڈل	-0.2973507
-4.363151	ہیو	-0.3520602
-4.840272	ہیوملیشن	-0.2993832
-2.804842	ہیپی	-1.494846
-4.363151	ہیڈ	-0.4254289
-1.884344	ہیں	-0.4913767
-4.840272	ہییر	-0.2524307
-4.840272	ہییں	-0.2975468
-1.487415	ہے	-0.5948248
-4.840272	ہےتو	-0.2932314
-4.840272	ی	-0.3007068
-3.027359	یا	-0.2755055
-4.539242	یاد	-0.393466
-3.047881	یار	-0.4057816
-4.539242	یاسر	-0.5956898
-4.840272	یاِسر	-0.3000219
-4.09991	یاہ	-0.7261428
-4.840272	یت	-0.3003016
-4.840272	یتی	-0.2978313
-4.840272	یرز	-0.2999779
-3.355973	یس	-0.5211652
-4.840272	یسٹ	-0.2962262
-4.840272	یعقوب	-0.2946598
-4.296204	یعنی	-0.3249654
-4.840272	یقین	-0.2866574
-2.318481	یو	-0.9245023
-4.840272	یوجولی	-0.3006534
-3.260489	یور	-0.7689028
-4.664181	یوز	-0.4771087
-4.539242	یوسف	-0.2846913
-4.840272	یوشولی	-0.3008104
-4.539242	یومنا	-0.2496433
-4.840272	یونٹ	-0.2977238
-4.664181	یونین	-0.2998835
-4.09991	یونیورسٹی	-0.2719555
-4.840272	یگا	-0.3007319
-4.840272	یں	-0.2932314
-2.167713	یہ	-0.1942811
-3.328389	یہاں	-0.5194021
-4.840272	یہہ	-0.3010237
-2.942645	یہی	-0.4087889
-4.840272	یہیں	-0.2999402

\2-grams:
-2.778318	<s> آ	0.007269181
-4.193292	<s> آؤ
-4.193292	<s> آؤٹ
-3.348194	<s> آئس	-0.1663314
-3.047163	<s> آئی	-0.023553
-3.079348	<s> آئیم	-0.06126967
-4.193292	<s> آئیندہ
-3.290202	<s> آب	-0.02996322
-3.71617	<s> آج
-4.193292	<s> آدھا
-4.193292	<s> آدھی
-3.892262	<s> آر	-0.4481576
-1.814894	<s> آرڈر	-0.2671406
-4.193292	<s> آرکیٹک
-1.626265	<s> آسلام	-1.756942
-4.193292	<s> آصف
-4.193292	<s> آف
-4.193292	<s> آفٹر
-3.892262	<s> آفیسر	0.1249387
-3.193292	<s> آل	-0.4423591
-3.494322	<s> آلرائٹ	0
-4.193292	<s> آلموسٹ
-3.494322	<s> آلٹرنیٹ	0.03571555
-3.591232	<s> آملیٹ	-0.06366906
-4.193292	<s> آمنہ
-2.31823	<s> آن	-0.8626761
-3.892262	<s> آواز	-0.3723859
-1.585837	<s> آپ	0.01398846
-4.193292	<s> آگے
-3.494322	<s> آں
-4.193292	<s> آہستہ
-4.193292	<s> ائیرپورٹ
-4.193292	<s> ااچھا
-2.540079	<s> اب	-0.174315
-4.193292	<s> ابراہیم
-4.193292	<s> ابو
-4.193292	<s> ابوبکر
-4.193292	<s> ابوو
-4.193292	<s> ابَو
-2.636989	<s> ابھی	-0.1197263
-4.193292	<s> ابھے
-4.193292	<s> ابیحہ
-3.71617	<s> ابے
-4.193292	<s> اتحاد
-3.71617	<s> اتنا
-4.193292	<s> اتنی
-3.892262	<s> اتنے
-4.193292	<s> احمد
-4.193292	<s> ادر
-4.193292	<s> ادھر
-4.193292	<s> ارجنٹلی
-3.71617	<s> ارشد	-0.39794
-4.193292	<s> ارے
-3.892262	<s> استشنا
-3.348194	<s> اسلام	0.8450981
-4.193292	<s> اسما
-3.71617	<s> اسمول
-4.193292	<s> اسٹار
-4.193292	<s> اسٹارٹ
-4.193292	<s> اسٹرابری
-3.079348	<s> اسٹرابیری	0.05069273
-3.892262	<s> اسٹیٹ
-4.193292	<s> اسپیشلی
-4.193292	<s> اسکریمبل
-3.348194	<s> اسی	0.01631344
-4.193292	<s> اشو
-4.193292	<s> اف
-4.193292	<s> اقبال
-3.892262	<s> الحمدللہ
-3.892262	<s> الرائٹ
-2.41514	<s> اللہ	-0.03288118
-3.193292	<s> الیون	-0.1204537
-3.0172	<s> اماؤنٹ	0.0499429
-4.193292	<s> امرین
-4.193292	<s> امل
-4.193292	<s> امپروو
-4.193292	<s> انار
-3.892262	<s> انتظار
-4.193292	<s> اندر
-4.193292	<s> انسان
-3.892262	<s> انسٹیٹیوٹ	-0.1760913
-3.151899	<s> انشااللہ	-0.01612
-3.892262	<s> انٹرنیشنل
-4.193292	<s> انگریڈینٹس
-3.047163	<s> انہوں	0.7323937
-4.193292	<s> انہیں
-4.193292	<s> انیس
-2.18897	<s> او	-0.6268233
-3.494322	<s> اوبلیک	0.1148703
-1.640623	<s> اور	-0.08405142
-3.11411	<s> اورنج	0.2108534
-4.193292	<s> اورینج
-3.41514	<s> اوریو	-0.0765571
-4.193292	<s> اول
-4.193292	<s> اونس
-3.079348	<s> اونلی	-0.1270217
-1.376388	<s> اوکے	0.01420258
-3.348194	<s> اویلیبل	-0.09753443
-4.193292	<s> اوے
-1.858838	<s> اِس	-0.4254088
-3.71617	<s> اِسمول
-4.193292	<s> اِسنیک
-2.367217	<s> اِسپائیسی	0.06614891
-2.962843	<s> اِسپرائیٹ	-0.03970641
-4.193292	<s> اِسکریمبل
-3.0172	<s> اِن	-0.09671234
-3.71617	<s> اِنہوں	0.6766936
-3.71617	<s> اِٹ	-0.1522128
-4.193292	<s> اٹھا
-4.193292	<s> اٹھارہ
-3.348194	<s> اپ	-0.06347101
-3.892262	<s> اپارٹمنٹ
-4.193292	<s> اپر
-3.41514	<s> اپنا	-0.1512677
-3.71617	<s> اپنے
-4.193292	<s> اپوزٹ
-4.193292	<s> اپوزیٹ
-4.193292	<s> اپکا
-1.816715	<s> اچھا	-0.04212322
-2.661813	<s> اگر	-0.1045517
-4.193292	<s> اگلی
-3.71617	<s> اگین	-0.146128
-4.193292	<s> اہ
-3.151899	<s> ای	-0.1664666
-3.892262	<s> ایئر
-4.193292	<s> ایان
-4.193292	<s> ایبسولیوٹلی
-3.71617	<s> ایبٹ	0.4771212
-3.494322	<s> ایریا
-4.193292	<s> ایز
-4.193292	<s> ایزا
-3.41514	<s> ایس	-0.08922318
-3.239049	<s> ایسا	0.0127743
-3.71617	<s> ایسے
-3.591232	<s> ایف	-0.2382392
-4.193292	<s> ایم
-4.193292	<s> ایمبیسی
-2.312478	<s> اینڈ	-0.2334927
-2.591232	<s> اینی	-0.134617
-2.373748	<s> ایٹ	-0.2481368
-3.71617	<s> ایٹی	-0.1760913
-3.71617	<s> ایٹین	-0.1870866
-4.193292	<s> ایپ
-3.348194	<s> ایپل	-0.2048154
-3.71617	<s> ایپلیکیشن	-0.02996323
-3.71617	<s> ایچ
-2.938019	<s> ایڈ	-0.4849466
-4.193292	<s> ایڈاون
-2.4009	<s> ایڈریس	0.006683643
-3.892262	<s> ایڈن
-1.732394	<s> ایک	-0.1146379
-3.239049	<s> ایکسٹرا	-0.0449161
-3.892262	<s> ایکسٹریملی	0.69897
-3.71617	<s> ایکسپیکٹڈ	0.4393327
-3.41514	<s> ایکسکلوسیو	0.1760913
-2.570042	<s> ایگ	-0.4432689
-4.193292	<s> ایگزٹ
-3.494322	<s> اے	-0.09610162
-4.193292	<s> با
-4.193292	<s> بائنگ
-4.193292	<s> بائے
-3.71617	<s> بابا	-0.30103
-3.079348	<s> بات	0.09676643
-3.0172	<s> بار	-0.8611255
-3.591232	<s> باربی	0.6434527
-3.71617	<s> بارہ	-0.19382
-3.591232	<s> باقی
-2.047163	<s> بالکل	-0.157783
-4.193292	<s> باکس
-4.193292	<s> بتا
-3.71617	<s> بتائیں	-0.5317724
-3.41514	<s> بتائیے	-0.05174301
-3.892262	<s> بتائے
-3.591232	<s> بتانا	-0.2573211
-4.193292	<s> بتایا
-3.591232	<s> بحریہ	-0.251812
-4.193292	<s> بخاری
-4.193292	<s> بدتمیزی
-4.193292	<s> بدلے
-4.193292	<s> برا
-4.193292	<s> براؤن
-3.151899	<s> براؤنی	-0.1478016
-4.193292	<s> براؤنیز
-2.778318	<s> برانچ	0.1092207
-2.761928	<s> برگر	-0.06894176
-3.892262	<s> بریڈ
-3.11411	<s> بریک	0.001934506
-2.274214	<s> بس	-0.05940139
-4.193292	<s> بغیر
-3.591232	<s> بل
-4.193292	<s> بلاول
-2.761928	<s> بلاک	-0.1130859
-4.193292	<s> بلند
-3.892262	<s> بلڈنگ
-3.892262	<s> بلکہ
-3.591232	<s> بلکے
-3.892262	<s> بلیک	-0.3723859
-4.193292	<s> بن
-3.892262	<s> بندہ
-3.892262	<s> بنگلو
-3.239049	<s> بوائے	-0.1917604
-4.193292	<s> بول
-4.193292	<s> بولا
-4.193292	<s> بولنا
-3.892262	<s> بولیں
-4.193292	<s> بولیۓ
-2.938019	<s> بِگ	0.382503
-3.71617	<s> بٹ
-4.193292	<s> بڑا
-4.193292	<s> بک
-4.193292	<s> بگڑ
-3.591232	<s> بھئی	-0.2621119
-2.989172	<s> بھائی	-0.09953171
-4.193292	<s> بھیج
-4.193292	<s> بھیجنا
-4.193292	<s> بھیجی
-4.193292	<s> بہار
-2.871072	<s> بہت	-0.1571234
-3.892262	<s> بہتر	-0.3222193
-3.892262	<s> بہن
-3.290202	<s> بی	-0.09981412
-3.892262	<s> بیس
-3.71617	<s> بیسیکلی
-2.962843	<s> بیف	-0.005042637
-3.892262	<s> بیل	-0.4191293
-4.193292	<s> بیلو
-4.193292	<s> بینک
-3.290202	<s> بیٹا	-0.03218469
-3.892262	<s> بیٹمین	0
-4.193292	<s> بیٹھے
-4.193292	<s> بیڈ
-3.892262	<s> بیک
-3.71617	<s> بیکن	0.243038
-3.892262	<s> بیکوز
-3.348194	<s> بیگ	-0.6839641
-3.591232	<s> بے	-0.1730002
-4.193292	<s> بےحد
-4.193292	<s> تاشی
-4.193292	<s> تبریز
-4.193292	<s> ترقیاتی
-4.193292	<s> تقریباً
-3.591232	<s> تم
-3.892262	<s> تمھیں
-4.193292	<s> تمہارا
-4.193292	<s> تمہیں
-2.125106	<s> تو	-0.1375753
-3.494322	<s> تھاؤزنڈ	-0.09363231
-2.831564	<s> تھرٹی	-0.1730002
-3.892262	<s> تھرٹین
-3.591232	<s> تھرڈ	0.3357922
-2.136387	<s> تھری	-0.01833453
-3.591232	<s> تھنک	-0.5413622
-4.193292	<s> تھوڑا
-3.41514	<s> تھوڑی	0
-1.63219	<s> تھینک	-0.9049638
-3.11411	<s> تھینکس	-0.3606157
-4.193292	<s> تیار
-4.193292	<s> تیرے
-2.591232	<s> تین	-0.07624147
-3.892262	<s> تینو
-3.290202	<s> تینوں	-0.1816951
-3.892262	<s> جاؤ	-0.2730013
-4.193292	<s> جاوید
-3.11411	<s> جب	-0.03654018
-4.193292	<s> جبران
-4.193292	<s> جتنا
-4.193292	<s> جدون
-3.348194	<s> جس	-0.1993211
-3.047163	<s> جسٹ	-0.2943994
-4.193292	<s> جسے
-4.193292	<s> جلال
-3.591232	<s> جلدی
-4.193292	<s> جناب
-4.193292	<s> جناح
-2.503096	<s> جو	0.01981298
-3.892262	<s> جوس
-4.193292	<s> جوسز
-3.41514	<s> جوہر	-0.1037494
-4.193292	<s> جہاں
-1.069113	<s> جی	-0.08100421
-4.193292	<s> جیزمین
-4.193292	<s> جیسے
-3.71617	<s> جیل	0
-3.892262	<s> جے
-4.193292	<s> حامد
-3.71617	<s> حبیب	-0.1870867
-4.193292	<s> حد
-4.193292	<s> حدیقہ
-3.892262	<s> حسن
-4.193292	<s> حسیب
-4.193292	<s> حسین
-4.193292	<s> حماد
-4.193292	<s> حمزہ
-4.193292	<s> حیا
-3.71617	<s> حیدرآباد
-3.591232	<s> خدا	0.2552725
-3.591232	<s> خیابان
-4.193292	<s> خیبر
-4.193292	<s> دائم
-4.193292	<s> دانیال
-4.193292	<s> دراصل
-3.239049	<s> دس	0.1888485
-4.193292	<s> دسمبر
-4.193292	<s> دفتر
-3.892262	<s> دفتری
-2.20652	<s> دو	-0.03324951
-3.591232	<s> دوبارہ
-3.348194	<s> دوسرا	0.005208995
-4.193292	<s> دوسری
-4.193292	<s> دوسرے
-2.71617	<s> دونوں	-0.0807526
-3.41514	<s> دِس	0.3472304
-4.193292	<s> دی
-4.193292	<s> دیا
-3.892262	<s> دیزرٹس	0.2218487
-3.71617	<s> دین
-3.591232	<s> دیٹس	0.04139269
-3.591232	<s> دیکھیں
-4.193292	<s> دیکھے
-4.193292	<s> دے
-4.193292	<s> ذرا
-4.193292	<s> ذراسا
-3.348194	<s> ذیشان	-0.05406726
-4.193292	<s> رؤف
-4.193292	<s> راؤ
-4.193292	<s> رائس
-3.591232	<s> رائٹ	0.172546
-3.11411	<s> رائیڈر	-0.1704141
-4.193292	<s> رابعہ
-4.193292	<s> رات
-4.193292	<s> راحیل
-4.193292	<s> راولپنڈی
-3.71617	<s> رباب	-0.1686032
-4.193292	<s> رحمت
-3.71617	<s> رحمہ	0
-3.892262	<s> رحیم	0.2218487
-3.71617	<s> ردا
-4.193292	<s> رنڈی
-4.193292	<s> روم
-4.193292	<s> روڈلی
-4.193292	<s> روک
-3.892262	<s> رپیز
-4.193292	<s> رکھا
-3.71617	<s> ریب
-4.193292	<s> ریسپیکٹ
-4.193292	<s> ریسیو
-4.193292	<s> رینا
-4.193292	<s> ریپیتیں
-2.871072	<s> ریپیٹ	0.1574929
-3.892262	<s> ریپیٹیٹ	-0.4227636
-4.193292	<s> ریکورڈ
-2.429864	<s> ریگولر	-0.01039329
-3.892262	<s> زاہد	-0.3309932
-3.591232	<s> زلمی	-0.04139267
-1.994635	<s> زیرو	-0.4073387
-3.71617	<s> زین
-3.892262	<s> زینب
-4.193292	<s> زیڈ
-4.193292	<s> سائرہ
-4.193292	<s> سائز
-4.193292	<s> سائمہ
-4.193292	<s> سائیڈ
-4.193292	<s> سابیشری
-4.193292	<s> سات
-3.591232	<s> ساتھ	-0.128534
-3.892262	<s> سارا
-3.892262	<s> سارہ
-3.892262	<s> ساری	-0.4149733
-3.71617	<s> سارے
-4.193292	<s> ساسج
-4.193292	<s> سالہ
-4.193292	<s> سانپ
-3.348194	<s> سب	-0.1352407
-3.591232	<s> سترہ	0
